{"learner":{"attributes":{"scikit_learn":"{\"_estimator_type\": \"classifier\"}"},"feature_names":[],"feature_types":[],"gradient_booster":{"model":{"gbtree_model_param":{"num_parallel_tree":"1","num_trees":"400"},"iteration_indptr":[0,4,8,12,16,20,24,28,32,36,40,44,48,52,56,60,64,68,72,76,80,84,88,92,96,100,104,108,112,116,120,124,128,132,136,140,144,148,152,156,160,164,168,172,176,180,184,188,192,196,200,204,208,212,216,220,224,228,232,236,240,244,248,252,256,260,264,268,272,276,280,284,288,292,296,300,304,308,312,316,320,324,328,332,336,340,344,348,352,356,360,364,368,372,376,380,384,388,392,396,400],"tree_info":[0,1,2,3,0,1,2,3,0,1,2,3,0,1,2,3,0,1,2,3,0,1,2,3,0,1,2,3,0,1,2,3,0,1,2,3,0,1,2,3,0,1,2,3,0,1,2,3,0,1,2,3,0,1,2,3,0,1,2,3,0,1,2,3,0,1,2,3,0,1,2,3,0,1,2,3,0,1,2,3,0,1,2,3,0,1,2,3,0,1,2,3,0,1,2,3,0,1,2,3,0,1,2,3,0,1,2,3,0,1,2,3,0,1,2,3,0,1,2,3,0,1,2,3,0,1,2,3,0,1,2,3,0,1,2,3,0,1,2,3,0,1,2,3,0,1,2,3,0,1,2,3,0,1,2,3,0,1,2,3,0,1,2,3,0,1,2,3,0,1,2,3,0,1,2,3,0,1,2,3,0,1,2,3,0,1,2,3,0,1,2,3,0,1,2,3,0,1,2,3,0,1,2,3,0,1,2,3,0,1,2,3,0,1,2,3,0,1,2,3,0,1,2,3,0,1,2,3,0,1,2,3,0,1,2,3,0,1,2,3,0,1,2,3,0,1,2,3,0,1,2,3,0,1,2,3,0,1,2,3,0,1,2,3,0,1,2,3,0,1,2,3,0,1,2,3,0,1,2,3,0,1,2,3,0,1,2,3,0,1,2,3,0,1,2,3,0,1,2,3,0,1,2,3,0,1,2,3,0,1,2,3,0,1,2,3,0,1,2,3,0,1,2,3,0,1,2,3,0,1,2,3,0,1,2,3,0,1,2,3,0,1,2,3,0,1,2,3,0,1,2,3,0,1,2,3,0,1,2,3,0,1,2,3,0,1,2,3,0,1,2,3,0,1,2,3,0,1,2,3,0,1,2,3,0,1,2,3,0,1,2,3,0,1,2,3,0,1,2,3],"trees":[{"base_weights":[-3.9731392E-1,-8.883554E-2,-1.995816E-1,1.2800809E0,-1.9931945E-1,5.934066E-1,-1.9405206E-1],"categories":[],"categories_nodes":[],"categories_segments":[],"categories_sizes":[],"default_left":[0,0,0,0,0,0,0],"id":0,"left_children":[1,3,-1,5,-1,-1,-1],"loss_changes":[7.379695E1,3.290096E2,0E0,1.6753993E2,0E0,0E0,0E0],"parents":[2147483647,0,0,1,1,3,3],"right_children":[2,4,-1,6,-1,-1,-1],"split_conditions":[-2.2212443E-1,-4.4903655E-2,-1.995816E-1,4.004619E-2,-1.9931945E-1,5.934066E-1,-1.9405206E-1],"split_indices":[5,6,0,4,0,0,0],"split_type":[0,0,0,0,0,0,0],"sum_hessian":[8.925E2,4.155E2,4.77E2,1.22625E2,2.92875E2,9E1,3.2625E1],"tree_param":{"num_deleted":"0","num_feature":"10","num_nodes":"7","size_leaf_vector":"1"}},{"base_weights":[8.282037E-1,1.3289524E0,-4.8234108E-1,5.792489E-1,1.6521739E0,3.044776E-1,-6.392749E-1,-2.9246676E-1,1.2283814E0,5.981975E-1,6.8619245E-1,-2.5E-1,1.3277311E0,-1.9886927E-1,-4.8387095E-1,-1.9726028E-1,5.524753E-1,7.5E-1,1.4711864E0,1.66787E0,-1.9609757E-1,-4.329897E-1,7.368421E-1,5.478261E-1,-2.857143E-1,3.9130437E-1,-1.9313306E-1,-1.8947369E-1,5.7272726E-1,5.8684933E-1,6.609442E-1,5.90224E-1,-1.7746478E-1,-1.7391305E-1,-1.8545455E-1,4.1538465E-1,-1.20000005E-1,-1.3846155E-1,3.529412E-2,5.606558E-1,-1.8655464E-1,-1.3548388E-1,9.4736844E-2],"categories":[],"categories_nodes":[],"categories_segments":[],"categories_sizes":[],"default_left":[0,0,0,0,0,0,0,0,0,0,0,0,0,0,0,0,0,0,0,0,0,0,0,0,0,0,0,0,0,0,0,0,0,0,0,0,0,0,0,0,0,0,0],"id":1,"left_children":[1,3,5,7,9,11,13,15,17,-1,19,21,23,-1,25,-1,-1,27,29,31,-1,33,35,-1,37,-1,-1,-1,-1,-1,39,-1,-1,41,-1,-1,-1,-1,-1,-1,-1,-1,-1],"loss_changes":[5.8700366E2,1.5576355E2,3.0786434E1,1.11479805E2,1.4767114E2,2.40906E1,4.386902E-1,6.713992E1,1.199292E1,0E0,1.5826877E2,5.3753395E0,1.2482283E1,0E0,9.704056E0,0E0,0E0,6.5260765E1,2.7687119E1,4.8031815E1,0E0,1.0559797E0,4.0518217E0,0E0,3.6457664E-1,0E0,0E0,0E0,0E0,0E0,4.629122E1,0E0,0E0,1.7065033E0,0E0,0E0,0E0,0E0,0E0,0E0,0E0,0E0,0E0],"parents":[2147483647,0,0,1,1,2,2,3,3,4,4,5,5,6,6,7,7,8,8,10,10,11,11,12,12,14,14,17,17,18,18,19,19,21,21,22,22,24,24,30,30,33,33],"right_children":[2,4,6,8,10,12,14,16,18,-1,20,22,24,-1,26,-1,-1,28,30,32,-1,34,36,-1,38,-1,-1,-1,-1,-1,40,-1,-1,42,-1,-1,-1,-1,-1,-1,-1,-1,-1],"split_conditions":[7.194079E-1,-2.2212443E-1,8.855626E-1,-5.177295E-1,-4.4903655E-2,8.7392616E-1,1.7994133E0,-4.4903655E-2,4.004619E-2,5.981975E-1,5.3730255E-1,9.2890507E-1,7.372658E-1,-1.9886927E-1,1.8160288E0,-1.9726028E-1,5.524753E-1,-4.4903655E-2,7.372658E-1,7.372658E-1,-1.9609757E-1,-4.4438475E-1,6.675439E-1,5.478261E-1,2.1815589E-1,3.9130437E-1,-1.9313306E-1,-1.8947369E-1,5.7272726E-1,5.8684933E-1,-4.4903655E-2,5.90224E-1,-1.7746478E-1,7.649053E-1,-1.8545455E-1,4.1538465E-1,-1.20000005E-1,-1.3846155E-1,3.529412E-2,5.606558E-1,-1.8655464E-1,-1.3548388E-1,9.4736844E-2],"split_indices":[6,5,6,4,6,2,6,6,4,0,5,3,4,0,6,0,0,6,4,4,0,0,4,0,0,0,0,0,0,0,6,0,0,2,0,0,0,0,0,0,0,0,0],"split_type":[0,0,0,0,0,0,0,0,0,0,0,0,0,0,0,0,0,0,0,0,0,0,0,0,0,0,0,0,0,0,0,0,0,0,0,0,0,0,0,0,0,0,0],"sum_hessian":[8.925E2,6.4575E2,2.4675E2,1.95375E2,4.50375E2,4.0875E1,2.05875E2,8.3625E1,1.1175E2,3.31875E2,1.185E2,2.7E1,1.3875E1,1.75875E2,3E1,7.2E1,1.1625E1,3.9E1,7.275E1,6.825E1,5.025E1,2.325E1,3.75E0,1.05E1,3.375E0,1.875E0,2.8125E1,1.8E1,2.1E1,4.4625E1,2.8125E1,6.0375E1,7.875E0,1.05E1,1.275E1,2.25E0,1.5E0,2.25E0,1.125E0,1.425E1,1.3875E1,6.75E0,3.75E0],"tree_param":{"num_deleted":"0","num_feature":"10","num_nodes":"43","size_leaf_vector":"1"}},{"base_weights":[-5.70789E-2,-1.9970916E-1,5.89849E-1],"categories":[],"categories_nodes":[],"categories_segments":[],"categories_sizes":[],"default_left":[0,0,0],"id":2,"left_children":[1,-1,-1],"loss_changes":[1.1015487E3,0E0,0E0],"parents":[2147483647,0,0],"right_children":[2,-1,-1],"split_conditions":[8.855626E-1,-1.9970916E-1,5.89849E-1],"split_indices":[6,0,0],"split_type":[0,0,0],"sum_hessian":[8.925E2,6.86625E2,2.05875E2],"tree_param":{"num_deleted":"0","num_feature":"10","num_nodes":"3","size_leaf_vector":"1"}},{"base_weights":[-3.7381086E-1,-1.9956094E-1,-7.061503E-2,-3.96546E-1,1.8585461E0,-6.508876E-2,-1.9904019E-1,5.9016395E-1,-1.4482759E-1,-1.9847475E-1,5.8456594E-1],"categories":[],"categories_nodes":[],"categories_segments":[],"categories_sizes":[],"default_left":[0,0,0,0,0,0,0,0,0,0,0],"id":3,"left_children":[1,-1,3,5,7,9,-1,-1,-1,-1,-1],"loss_changes":[7.889278E1,0E0,2.7676852E2,3.325584E1,1.7137314E1,2.0427919E2,0E0,0E0,0E0,0E0,0E0],"parents":[2147483647,0,0,2,2,3,3,4,4,5,5],"right_children":[2,-1,4,6,8,10,-1,-1,-1,-1,-1],"split_conditions":[-4.4903655E-2,-1.9956094E-1,5.3730255E-1,8.6894715E-1,8.6894715E-1,7.372658E-1,-1.9904019E-1,5.9016395E-1,-1.4482759E-1,-1.9847475E-1,5.8456594E-1],"split_indices":[6,0,5,6,6,4,0,0,0,0,0],"split_type":[0,0,0,0,0,0,0,0,0,0,0],"sum_hessian":[8.925E2,4.545E2,4.38E2,3.75375E2,6.2625E1,1.68E2,2.07375E2,6E1,2.625E0,1.30125E2,3.7875E1],"tree_param":{"num_deleted":"0","num_feature":"10","num_nodes":"11","size_leaf_vector":"1"}},{"base_weights":[-3.4877148E-1,-7.464457E-2,-1.851325E-1,8.344102E-1,-1.8501349E-1,3.5088417E-1,-1.7957442E-1],"categories":[],"categories_nodes":[],"categories_segments":[],"categories_sizes":[],"default_left":[0,0,0,0,0,0,0],"id":4,"left_children":[1,3,-1,5,-1,-1,-1],"loss_changes":[5.751838E1,1.9182976E2,0E0,7.056815E1,0E0,0E0,0E0],"parents":[2147483647,0,0,1,1,3,3],"right_children":[2,4,-1,6,-1,-1,-1],"split_conditions":[-2.2212443E-1,-4.4903655E-2,-1.851325E-1,4.004619E-2,-1.8501349E-1,3.5088417E-1,-1.7957442E-1],"split_indices":[5,6,0,4,0,0,0],"split_type":[0,0,0,0,0,0,0],"sum_hessian":[7.815685E2,3.8724542E2,3.9432306E2,1.4445421E2,2.4279121E2,1.1721841E2,2.7235796E1],"tree_param":{"num_deleted":"0","num_feature":"10","num_nodes":"7","size_leaf_vector":"1"}},{"base_weights":[5.8162344E-1,8.303945E-1,-5.8765376E-1,4.2932588E-1,9.8995364E-1,-1.844418E-1,-4.1507992E-1,-2.4786225E-1,7.536321E-1,3.518272E-1,4.3187538E-1,3.382463E-1,-1.7829463E-1,-1.826509E-1,3.3963782E-1,9.4662803E-1,2.2019072E-1,9.95191E-1,-1.8266259E-1,4.769904E-1,3.5429916E-1,3.4224242E-1,-5.2070844E-1,3.5315064E-1,-1.688754E-1,-1.7435512E-1,3.4106496E-1,-1.781255E-1,-1.9335797E-2],"categories":[],"categories_nodes":[],"categories_segments":[],"categories_sizes":[],"default_left":[0,0,0,0,0,0,0,0,0,0,0,0,0,0,0,0,0,0,0,0,0,0,0,0,0,0,0,0,0],"id":5,"left_children":[1,3,5,7,9,-1,11,13,15,-1,17,-1,-1,-1,-1,19,21,23,-1,25,-1,-1,27,-1,-1,-1,-1,-1,-1],"loss_changes":[2.849777E2,5.120941E1,5.5150986E-1,5.1007107E1,5.8302856E1,0E0,7.992248E0,3.8391796E1,1.5926033E1,0E0,8.492142E1,0E0,0E0,0E0,0E0,1.2070244E1,2.9882189E1,2.7227821E1,0E0,2.8514048E1,0E0,0E0,7.7751064E-1,0E0,0E0,0E0,0E0,0E0,0E0],"parents":[2147483647,0,0,1,1,2,2,3,3,4,4,6,6,7,7,8,8,10,10,15,15,16,16,17,17,19,19,22,22],"right_children":[2,4,6,8,10,-1,12,14,16,-1,18,-1,-1,-1,-1,20,22,24,-1,26,-1,-1,28,-1,-1,-1,-1,-1,-1],"split_conditions":[8.855626E-1,-2.2212443E-1,1.7994133E0,-5.177295E-1,-4.4903655E-2,-1.844418E-1,1.8160288E0,-4.4903655E-2,7.372658E-1,3.518272E-1,5.3730255E-1,3.382463E-1,-1.7829463E-1,-1.826509E-1,3.3963782E-1,-4.4903655E-2,-4.4903655E-2,7.372658E-1,-1.8266259E-1,4.004619E-2,3.5429916E-1,3.4224242E-1,8.5233164E-1,3.5315064E-1,-1.688754E-1,-1.7435512E-1,3.4106496E-1,-1.781255E-1,-1.9335797E-2],"split_indices":[6,5,6,4,6,0,6,6,4,0,5,0,0,0,0,6,6,4,0,4,0,0,6,0,0,0,0,0,0],"split_type":[0,0,0,0,0,0,0,0,0,0,0,0,0,0,0,0,0,0,0,0,0,0,0,0,0,0,0,0,0],"sum_hessian":[9.770235E2,8.0586127E2,1.711622E2,2.3040495E2,5.754563E2,1.4567896E2,2.5483257E1,7.46866E1,1.5571835E2,4.326398E2,1.4281654E2,2.1020129E0,2.3381245E1,5.9643898E1,1.50427E1,1.1377916E2,4.1939194E1,9.269066E1,5.0125874E1,3.888837E1,7.489079E1,1.846073E1,2.3478466E1,8.321602E1,9.474645E0,1.4982456E1,2.3905914E1,1.9978666E1,3.4997988E0],"tree_param":{"num_deleted":"0","num_feature":"10","num_nodes":"29","size_leaf_vector":"1"}},{"base_weights":[-4.7422394E-2,-1.8534741E-1,3.4812695E-1],"categories":[],"categories_nodes":[],"categories_segments":[],"categories_sizes":[],"default_left":[0,0,0],"id":6,"left_children":[1,-1,-1],"loss_changes":[5.7748956E2,0E0,0E0],"parents":[2147483647,0,0],"right_children":[2,-1,-1],"split_conditions":[8.855626E-1,-1.8534741E-1,3.4812695E-1],"split_indices":[6,0,0],"split_type":[0,0,0],"sum_hessian":[8.3616675E2,5.682843E2,2.6788245E2],"tree_param":{"num_deleted":"0","num_feature":"10","num_nodes":"3","size_leaf_vector":"1"}},{"base_weights":[-3.25851E-1,-1.8508768E-1,-5.804414E-2,-3.4778786E-1,1.1198434E0,-5.4005843E-2,-1.8464224E-1,3.5083735E-1,-1.2989374E-1,-1.8438074E-1,3.5086736E-1],"categories":[],"categories_nodes":[],"categories_segments":[],"categories_sizes":[],"default_left":[0,0,0,0,0,0,0,0,0,0,0],"id":7,"left_children":[1,-1,3,5,7,9,-1,-1,-1,-1,-1],"loss_changes":[6.1261505E1,0E0,1.4052911E2,2.594357E1,6.770157E0,1.09492744E2,0E0,0E0,0E0,0E0,0E0],"parents":[2147483647,0,0,2,2,3,3,4,4,5,5],"right_children":[2,-1,4,6,8,10,-1,-1,-1,-1,-1],"split_conditions":[-4.4903655E-2,-1.8508768E-1,5.3730255E-1,8.6894715E-1,8.6894715E-1,7.372658E-1,-1.8464224E-1,3.5083735E-1,-1.2989374E-1,-1.8438074E-1,3.5086736E-1],"split_indices":[6,0,5,6,6,4,0,0,0,0,0],"split_type":[0,0,0,0,0,0,0,0,0,0,0],"sum_hessian":[7.852591E2,3.7563617E2,4.096229E2,3.2931964E2,8.030326E1,1.5757976E2,1.7173988E2,7.805615E1,2.2471032E0,1.08408325E2,4.9171432E1],"tree_param":{"num_deleted":"0","num_feature":"10","num_nodes":"11","size_leaf_vector":"1"}},{"base_weights":[-3.1886867E-1,-6.661775E-2,-1.7538391E-1,6.575507E-1,-1.7526495E-1,2.6718733E-1,-1.6915287E-1],"categories":[],"categories_nodes":[],"categories_segments":[],"categories_sizes":[],"default_left":[0,0,0,0,0,0,0],"id":8,"left_children":[1,3,-1,5,-1,-1,-1],"loss_changes":[4.411406E1,1.2746572E2,0E0,4.086625E1,0E0,0E0,0E0],"parents":[2147483647,0,0,1,1,3,3],"right_children":[2,4,-1,6,-1,-1,-1],"split_conditions":[-2.2212443E-1,-4.4903655E-2,-1.7538391E-1,4.004619E-2,-1.7526495E-1,2.6718733E-1,-1.6915287E-1],"split_indices":[5,6,0,4,0,0,0],"split_type":[0,0,0,0,0,0,0],"sum_hessian":[6.5766327E2,3.380391E2,3.1962415E2,1.407902E2,1.972489E2,1.1845645E2,2.2333757E1],"tree_param":{"num_deleted":"0","num_feature":"10","num_nodes":"7","size_leaf_vector":"1"}},{"base_weights":[4.7298914E-1,6.5579E-1,-5.5029017E-1,3.5577765E-1,7.682397E-1,-1.7461896E-1,-3.560144E-1,-2.2083901E-1,5.992202E-1,2.6782748E-1,3.5602158E-1,3.005106E-1,-1.6763476E-1,-1.7253011E-1,2.5876728E-1,7.370933E-1,1.8760574E-1,7.6958686E-1,-1.7231935E-1,3.927558E-1,2.6846474E-1,2.6077476E-1,-4.755373E-1,2.6814616E-1,-1.5707164E-1,-1.6319501E-1,2.6077703E-1,-1.6700755E-1,-1.1949198E-2],"categories":[],"categories_nodes":[],"categories_segments":[],"categories_sizes":[],"default_left":[0,0,0,0,0,0,0,0,0,0,0,0,0,0,0,0,0,0,0,0,0,0,0,0,0,0,0,0,0],"id":9,"left_children":[1,3,5,7,9,-1,11,13,15,-1,17,-1,-1,-1,-1,19,21,23,-1,25,-1,-1,27,-1,-1,-1,-1,-1,-1],"loss_changes":[1.7340569E2,2.6221008E1,6.6163254E-1,3.0448626E1,2.8958496E1,0E0,6.715325E0,2.5383291E1,8.494961E0,0E0,5.1997696E1,0E0,0E0,0E0,0E0,5.821514E0,1.8273724E1,1.5438095E1,0E0,1.7204361E1,0E0,0E0,7.0885134E-1,0E0,0E0,0E0,0E0,0E0,0E0],"parents":[2147483647,0,0,1,1,2,2,3,3,4,4,6,6,7,7,8,8,10,10,15,15,16,16,17,17,19,19,22,22],"right_children":[2,4,6,8,10,-1,12,14,16,-1,18,-1,-1,-1,-1,20,22,24,-1,26,-1,-1,28,-1,-1,-1,-1,-1,-1],"split_conditions":[8.855626E-1,-2.2212443E-1,1.7994133E0,-5.177295E-1,-4.4903655E-2,-1.7461896E-1,1.8160288E0,-4.4903655E-2,7.372658E-1,2.6782748E-1,5.3730255E-1,3.005106E-1,-1.6763476E-1,-1.7253011E-1,2.5876728E-1,-4.4903655E-2,-4.4903655E-2,7.372658E-1,-1.7231935E-1,4.004619E-2,2.6846474E-1,2.6077476E-1,8.5233164E-1,2.6814616E-1,-1.5707164E-1,-1.6319501E-1,2.6077703E-1,-1.6700755E-1,-1.1949198E-2],"split_indices":[6,5,6,4,6,0,6,6,4,0,5,0,0,0,0,6,6,4,0,4,0,0,6,0,0,0,0,0,0],"split_type":[0,0,0,0,0,0,0,0,0,0,0,0,0,0,0,0,0,0,0,0,0,0,0,0,0,0,0,0,0],"sum_hessian":[9.240945E2,7.843378E2,1.397567E2,2.1496948E2,5.6936835E2,1.18397255E2,2.1359447E1,6.3843346E1,1.5112613E2,4.363842E2,1.3298415E2,2.263452E0,1.9095997E1,4.8464905E1,1.537844E1,1.1261442E2,3.851171E1,9.2182495E1,4.080165E1,3.648457E1,7.6129845E1,1.8837688E1,1.9674025E1,8.43845E1,7.797997E0,1.2253719E1,2.423085E1,1.6350847E1,3.323177E0],"tree_param":{"num_deleted":"0","num_feature":"10","num_nodes":"29","size_leaf_vector":"1"}},{"base_weights":[-4.184341E-2,-1.7563298E-1,2.6435405E-1],"categories":[],"categories_nodes":[],"categories_segments":[],"categories_sizes":[],"default_left":[0,0,0],"id":10,"left_children":[1,-1,-1],"loss_changes":[3.683483E2,0E0,0E0],"parents":[2147483647,0,0],"right_children":[2,-1,-1],"split_conditions":[8.855626E-1,-1.7563298E-1,2.6435405E-1],"split_indices":[6,0,0],"split_type":[0,0,0],"sum_hessian":[7.32091E2,4.6097366E2,2.711173E2],"tree_param":{"num_deleted":"0","num_feature":"10","num_nodes":"3","size_leaf_vector":"1"}},{"base_weights":[-2.964029E-1,-1.7534329E-1,-5.0859384E-2,-3.1694952E-1,8.54984E-1,-4.600584E-2,-1.748802E-1,2.6686424E-1,-1.1744254E-1,-1.7440584E-1,2.673831E-1],"categories":[],"categories_nodes":[],"categories_segments":[],"categories_sizes":[],"default_left":[0,0,0,0,0,0,0,0,0,0,0],"id":11,"left_children":[1,-1,3,5,7,9,-1,-1,-1,-1,-1],"loss_changes":[4.6949215E1,0E0,8.6957306E1,2.0059137E1,3.8778343E0,7.034217E1,0E0,0E0,0E0,0E0,0E0],"parents":[2147483647,0,0,2,2,3,3,4,4,5,5],"right_children":[2,-1,4,6,8,10,-1,-1,-1,-1,-1],"split_conditions":[-4.4903655E-2,-1.7534329E-1,5.3730255E-1,8.6894715E-1,8.6894715E-1,7.372658E-1,-1.748802E-1,2.6686424E-1,-1.1744254E-1,-1.7440584E-1,2.673831E-1],"split_indices":[6,0,5,6,6,4,0,0,0,0,0],"split_type":[0,0,0,0,0,0,0,0,0,0,0],"sum_hessian":[6.6315515E2,3.0451456E2,3.586406E2,2.7771292E2,8.092766E1,1.3815501E2,1.395579E2,7.902275E1,1.9049045E0,8.817305E1,4.9981968E1],"tree_param":{"num_deleted":"0","num_feature":"10","num_nodes":"11","size_leaf_vector":"1"}},{"base_weights":[-2.986755E-1,-6.1775554E-2,-1.683453E-1,5.6234825E-1,-1.6819388E-1,2.2475511E-1,-1.6090588E-1],"categories":[],"categories_nodes":[],"categories_segments":[],"categories_sizes":[],"default_left":[0,0,0,0,0,0,0],"id":12,"left_children":[1,3,-1,5,-1,-1,-1],"loss_changes":[3.3383354E1,8.861748E1,0E0,2.6366291E1,0E0,0E0,0E0],"parents":[2147483647,0,0,1,1,3,3],"right_children":[2,4,-1,6,-1,-1,-1],"split_conditions":[-2.2212443E-1,-4.4903655E-2,-1.683453E-1,4.004619E-2,-1.6819388E-1,2.2475511E-1,-1.6090588E-1],"split_indices":[5,6,0,4,0,0,0],"split_type":[0,0,0,0,0,0,0],"sum_hessian":[5.364363E2,2.8260428E2,2.5383203E2,1.2548549E2,1.5711879E2,1.0751975E2,1.7965734E1],"tree_param":{"num_deleted":"0","num_feature":"10","num_nodes":"7","size_leaf_vector":"1"}},{"base_weights":[4.1195714E-1,5.620155E-1,-5.201487E-1,3.127468E-1,6.5278876E-1,-1.6742122E-1,-2.9874977E-1,-2.0220126E-1,5.1413053E-1,2.2545998E-1,3.1177333E-1,2.7380887E-1,-1.591727E-1,-1.649108E-1,2.160985E-1,6.2633586E-1,1.6709667E-1,6.5141207E-1,-1.644826E-1,3.4282103E-1,2.2508854E-1,2.1811412E-1,-4.354693E-1,2.2509374E-1,-1.4702354E-1,-1.5402617E-1,2.1884364E-1,-1.5809761E-1,-5.619123E-3],"categories":[],"categories_nodes":[],"categories_segments":[],"categories_sizes":[],"default_left":[0,0,0,0,0,0,0,0,0,0,0,0,0,0,0,0,0,0,0,0,0,0,0,0,0,0,0,0,0],"id":13,"left_children":[1,3,5,7,9,-1,11,13,15,-1,17,-1,-1,-1,-1,19,21,23,-1,25,-1,-1,27,-1,-1,-1,-1,-1,-1],"loss_changes":[1.1377608E2,1.5619431E1,7.8222275E-1,1.9662468E1,1.6997116E1,0E0,5.7305374E0,1.7623941E1,5.1857033E0,0E0,3.442018E1,0E0,0E0,0E0,0E0,3.338173E0,1.1977064E1,9.857052E0,0E0,1.1287849E1,0E0,0E0,6.488824E-1,0E0,0E0,0E0,0E0,0E0,0E0],"parents":[2147483647,0,0,1,1,2,2,3,3,4,4,6,6,7,7,8,8,10,10,15,15,16,16,17,17,19,19,22,22],"right_children":[2,4,6,8,10,-1,12,14,16,-1,18,-1,-1,-1,-1,20,22,24,-1,26,-1,-1,28,-1,-1,-1,-1,-1,-1],"split_conditions":[8.855626E-1,-2.2212443E-1,1.7994133E0,-5.177295E-1,-4.4903655E-2,-1.6742122E-1,1.8160288E0,-4.4903655E-2,7.372658E-1,2.2545998E-1,5.3730255E-1,2.7380887E-1,-1.591727E-1,-1.649108E-1,2.160985E-1,-4.4903655E-2,-4.4903655E-2,7.372658E-1,-1.644826E-1,4.004619E-2,2.2508854E-1,2.1811412E-1,8.5233164E-1,2.2509374E-1,-1.4702354E-1,-1.5402617E-1,2.1884364E-1,-1.5809761E-1,-5.619123E-3],"split_indices":[6,5,6,4,6,0,6,6,4,0,5,0,0,0,0,6,6,4,0,4,0,0,6,0,0,0,0,0,0],"split_type":[0,0,0,0,0,0,0,0,0,0,0,0,0,0,0,0,0,0,0,0,0,0,0,0,0,0,0,0,0],"sum_hessian":[8.103502E2,6.98325E2,1.12025246E2,1.876027E2,5.107223E2,9.4344864E1,1.7680382E1,5.273997E1,1.3486273E2,3.9511035E2,1.1561194E2,2.3681602E0,1.5312221E1,3.8603004E1,1.4136967E1,1.0130371E2,3.355903E1,8.305541E1,3.255653E1,3.1963537E1,6.934017E1,1.728754E1,1.6271488E1,7.67485E1,6.306909E0,9.841656E0,2.2121881E1,1.31245575E1,3.1469295E0],"tree_param":{"num_deleted":"0","num_feature":"10","num_nodes":"29","size_leaf_vector":"1"}},{"base_weights":[-3.830803E-2,-1.686348E-1,2.215034E-1],"categories":[],"categories_nodes":[],"categories_segments":[],"categories_sizes":[],"default_left":[0,0,0],"id":14,"left_children":[1,-1,-1],"loss_changes":[2.502804E2,0E0,0E0],"parents":[2147483647,0,0],"right_children":[2,-1,-1],"split_conditions":[8.855626E-1,-1.686348E-1,2.215034E-1],"split_indices":[6,0,0],"split_type":[0,0,0],"sum_hessian":[6.131963E2,3.6637408E2,2.4682219E2],"tree_param":{"num_deleted":"0","num_feature":"10","num_nodes":"3","size_leaf_vector":"1"}},{"base_weights":[-2.7634686E-1,-1.6830304E-1,-4.623623E-2,-2.95565E-1,7.190278E-1,-4.013766E-2,-1.6776785E-1,2.2422262E-1,-1.0616327E-1,-1.6703886E-1,2.2471501E-1],"categories":[],"categories_nodes":[],"categories_segments":[],"categories_sizes":[],"default_left":[0,0,0,0,0,0,0,0,0,0,0],"id":15,"left_children":[1,-1,3,5,7,9,-1,-1,-1,-1,-1],"loss_changes":[3.5575348E1,0E0,5.776554E1,1.5347353E1,2.530468E0,4.8121727E1,0E0,0E0,0E0,0E0,0E0],"parents":[2147483647,0,0,2,2,3,3,4,4,5,5],"right_children":[2,-1,4,6,8,10,-1,-1,-1,-1,-1],"split_conditions":[-4.4903655E-2,-1.6830304E-1,5.3730255E-1,8.6894715E-1,8.6894715E-1,7.372658E-1,-1.6776785E-1,2.2422262E-1,-1.0616327E-1,-1.6703886E-1,2.2471501E-1],"split_indices":[6,0,5,6,6,4,0,0,0,0,0],"split_type":[0,0,0,0,0,0,0,0,0,0,0],"sum_hessian":[5.424975E2,2.4186064E2,3.0063687E2,2.2722049E2,7.3416374E1,1.1599758E2,1.1122291E2,7.181995E1,1.5964277E0,7.028106E1,4.5716522E1],"tree_param":{"num_deleted":"0","num_feature":"10","num_nodes":"11","size_leaf_vector":"1"}},{"base_weights":[-2.8457344E-1,-5.88507E-2,-1.631586E-1,5.040978E-1,-1.6294369E-1,1.9978482E-1,-1.5401724E-1],"categories":[],"categories_nodes":[],"categories_segments":[],"categories_sizes":[],"default_left":[0,0,0,0,0,0,0],"id":16,"left_children":[1,3,-1,5,-1,-1,-1],"loss_changes":[2.5045547E1,6.3030125E1,0E0,1.7957523E1,0E0,0E0,0E0],"parents":[2147483647,0,0,1,1,3,3],"right_children":[2,4,-1,6,-1,-1,-1],"split_conditions":[-2.2212443E-1,-4.4903655E-2,-1.631586E-1,4.004619E-2,-1.6294369E-1,1.9978482E-1,-1.5401724E-1],"split_indices":[5,6,0,4,0,0,0],"split_type":[0,0,0,0,0,0,0],"sum_hessian":[4.2747607E2,2.29186E2,1.9829007E2,1.0596754E2,1.2321846E2,9.172274E1,1.42448015E1],"tree_param":{"num_deleted":"0","num_feature":"10","num_nodes":"7","size_leaf_vector":"1"}},{"base_weights":[3.7389565E-1,5.049925E-1,-4.93996E-1,2.850775E-1,5.839507E-1,-1.6199173E-1,-2.4028209E-1,-4.9488255E-1,3.9238107E-1,2.0068012E-1,2.8314808E-1,2.5407398E-1,-1.5201953E-1,-1.5529272E-1,-1.2962292E-2,5.6680698E-2,4.646867E-1,5.8010477E-1,-1.5825091E-1,-1.5209958E-1,1.8988566E-1,5.651059E-1,1.5305819E-1,1.9970976E-1,-1.379093E-1,9.6062385E-2,1.9953756E-1,1.9210932E-1,-1.19415104E-1],"categories":[],"categories_nodes":[],"categories_segments":[],"categories_sizes":[],"default_left":[0,0,0,0,0,0,0,0,0,0,0,0,0,0,0,0,0,0,0,0,0,0,0,0,0,0,0,0,0],"id":17,"left_children":[1,3,5,7,9,-1,11,13,15,-1,17,-1,-1,-1,-1,19,21,23,-1,-1,-1,25,27,-1,-1,-1,-1,-1,-1],"loss_changes":[7.745981E1,1.0079163E1,9.149456E-1,1.3403899E1,1.0884811E1,0E0,4.931191E0,1.784091E-1,3.355032E0,0E0,2.3696156E1,0E0,0E0,0E0,0E0,8.710113E0,3.4959679E0,6.6776257E0,0E0,0E0,0E0,1.8986568E0,8.115871E0,0E0,0E0,0E0,0E0,0E0,0E0],"parents":[2147483647,0,0,1,1,2,2,3,3,4,4,6,6,7,7,8,8,10,10,15,15,16,16,17,17,21,21,22,22],"right_children":[2,4,6,8,10,-1,12,14,16,-1,18,-1,-1,-1,-1,20,22,24,-1,-1,-1,26,28,-1,-1,-1,-1,-1,-1],"split_conditions":[8.855626E-1,-2.2212443E-1,1.7994133E0,-9.4213897E-1,-4.4903655E-2,-1.6199173E-1,1.8160288E0,-3.114591E-1,-5.177295E-1,2.0068012E-1,5.3730255E-1,2.5407398E-1,-1.5201953E-1,-1.5529272E-1,-1.2962292E-2,-4.4903655E-2,7.372658E-1,7.372658E-1,-1.5825091E-1,-1.5209958E-1,1.8988566E-1,-4.4903655E-2,-4.4903655E-2,1.9970976E-1,-1.379093E-1,9.6062385E-2,1.9953756E-1,1.9210932E-1,-1.19415104E-1],"split_indices":[6,5,6,6,6,0,6,3,4,0,5,0,0,0,0,6,4,4,0,0,0,6,6,0,0,0,0,0,0],"split_type":[0,0,0,0,0,0,0,0,0,0,0,0,0,0,0,0,0,0,0,0,0,0,0,0,0,0,0,0,0],"sum_hessian":[6.7760614E2,5.890474E2,8.855869E1,1.5683633E2,4.3221112E2,7.401744E1,1.4541246E1,1.8530588E1,1.3830574E2,3.36047E2,9.6164116E1,2.4334645E0,1.2107782E1,1.7502584E1,1.0280042E0,2.4826273E1,1.1347947E2,7.059005E1,2.557406E1,1.2611023E1,1.2215249E1,8.520849E1,2.827098E1,6.55536E1,5.0364537E0,2.5927147E1,5.9281338E1,1.4918051E1,1.3352931E1],"tree_param":{"num_deleted":"0","num_feature":"10","num_nodes":"29","size_leaf_vector":"1"}},{"base_weights":[-3.5965357E-2,-1.6350248E-1,6.52892E-1,2.0135148E-1,5.3057665E-1,-2.0264538E-1,1.9609779E-1],"categories":[],"categories_nodes":[],"categories_segments":[],"categories_sizes":[],"default_left":[0,0,0,0,0,0,0],"id":18,"left_children":[1,-1,3,-1,5,-1,-1],"loss_changes":[1.7531168E2,0E0,1.1894989E-1,0E0,5.2510023E0,0E0,0E0],"parents":[2147483647,0,0,2,2,4,4],"right_children":[2,-1,4,-1,6,-1,-1],"split_conditions":[8.855626E-1,-1.6350248E-1,1.7994133E0,2.0135148E-1,1.8160288E0,-2.0264538E-1,1.9609779E-1],"split_indices":[6,0,6,0,6,0,0],"split_type":[0,0,0,0,0,0,0],"sum_hessian":[4.979359E2,2.8646014E2,2.1147577E2,1.8007684E2,3.1398932E1,2.4920259E0,2.8906906E1],"tree_param":{"num_deleted":"0","num_feature":"10","num_nodes":"7","size_leaf_vector":"1"}},{"base_weights":[-2.6207548E-1,-1.6311145E-1,-4.3049596E-2,-2.7998406E-1,6.380078E-1,-3.5282604E-2,-1.6244395E-1,1.9905294E-1,-9.5707014E-2,-1.6141462E-1,1.9936971E-1],"categories":[],"categories_nodes":[],"categories_segments":[],"categories_sizes":[],"default_left":[0,0,0,0,0,0,0,0,0,0,0],"id":19,"left_children":[1,-1,3,5,7,9,-1,-1,-1,-1,-1],"loss_changes":[2.6773352E1,0E0,3.9786892E1,1.1677887E1,1.7653103E0,3.3960705E1,0E0,0E0,0E0,0E0,0E0],"parents":[2147483647,0,0,2,2,3,3,4,4,5,5],"right_children":[2,-1,4,6,8,10,-1,-1,-1,-1,-1],"split_conditions":[-4.4903655E-2,-1.6311145E-1,5.3730255E-1,8.6894715E-1,8.6894715E-1,7.372658E-1,-1.6244395E-1,1.9905294E-1,-9.5707014E-2,-1.6141462E-1,1.9936971E-1],"split_indices":[6,0,5,6,6,4,0,0,0,0,0],"split_type":[0,0,0,0,0,0,0,0,0,0,0],"sum_hessian":[4.3341913E2,1.8896303E2,2.4445609E2,1.8179868E2,6.2657417E1,9.450143E1,8.729725E1,6.1329865E1,1.327553E0,5.512861E1,3.9372818E1],"tree_param":{"num_deleted":"0","num_feature":"10","num_nodes":"11","size_leaf_vector":"1"}},{"base_weights":[-2.718848E-1,-5.3866297E-2,-1.5926759E-1,4.636755E-1,-1.5894824E-1,1.8457654E-1,-1.4890906E-1],"categories":[],"categories_nodes":[],"categories_segments":[],"categories_sizes":[],"default_left":[0,0,0,0,0,0,0],"id":20,"left_children":[1,3,-1,5,-1,-1,-1],"loss_changes":[1.9006721E1,4.5605835E1,0E0,1.3220768E1,0E0,0E0,0E0],"parents":[2147483647,0,0,1,1,3,3],"right_children":[2,4,-1,6,-1,-1,-1],"split_conditions":[-2.2212443E-1,-4.4903655E-2,-1.5926759E-1,4.004619E-2,-1.5894824E-1,1.8457654E-1,-1.4890906E-1],"split_indices":[5,6,0,4,0,0,0],"split_type":[0,0,0,0,0,0,0],"sum_hessian":[3.3609702E2,1.8314404E2,1.5295296E2,8.775187E1,9.539217E1,7.6096245E1,1.1655625E1],"tree_param":{"num_deleted":"0","num_feature":"10","num_nodes":"7","size_leaf_vector":"1"}},{"base_weights":[3.4662962E-1,4.652175E-1,-4.749529E-1,2.6089865E-1,5.396124E-1,-1.577048E-1,-2.1085185E-1,-4.7327456E-1,3.5665303E-1,1.849607E-1,2.6320806E-1,2.0197843E-1,-1.4555971E-1,-1.4949565E-1,-1.7562557E-2,6.8765424E-2,4.225527E-1,5.3316617E-1,-1.5300809E-1,-1.4673574E-1,1.7349297E-1,5.1210314E-1,1.4378662E-1,1.8336582E-1,-1.2919547E-1,8.695527E-2,1.846005E-1,1.7456388E-1,-1.07294366E-1],"categories":[],"categories_nodes":[],"categories_segments":[],"categories_sizes":[],"default_left":[0,0,0,0,0,0,0,0,0,0,0,0,0,0,0,0,0,0,0,0,0,0,0,0,0,0,0,0,0],"id":21,"left_children":[1,3,5,7,9,-1,11,13,15,-1,17,-1,-1,-1,-1,19,21,23,-1,-1,-1,25,27,-1,-1,-1,-1,-1,-1],"loss_changes":[5.4022278E1,7.201851E0,8.2897186E-1,9.36937E0,7.347084E0,0E0,3.4732604E0,1.3212943E-1,2.178216E0,0E0,1.668667E1,0E0,0E0,0E0,0E0,6.782906E0,2.2849197E0,4.6848927E0,0E0,0E0,0E0,1.4533443E0,5.559751E0,0E0,0E0,0E0,0E0,0E0,0E0],"parents":[2147483647,0,0,1,1,2,2,3,3,4,4,6,6,7,7,8,8,10,10,15,15,16,16,17,17,21,21,22,22],"right_children":[2,4,6,8,10,-1,12,14,16,-1,18,-1,-1,-1,-1,20,22,24,-1,-1,-1,26,28,-1,-1,-1,-1,-1,-1],"split_conditions":[8.855626E-1,-2.2212443E-1,1.7994133E0,-9.4213897E-1,-4.4903655E-2,-1.577048E-1,1.8160288E0,-5.874515E-1,-4.4800758E-1,1.849607E-1,5.3730255E-1,2.0197843E-1,-1.4555971E-1,-1.4949565E-1,-1.7562557E-2,-4.4903655E-2,7.372658E-1,7.372658E-1,-1.5300809E-1,-1.4673574E-1,1.7349297E-1,4.004619E-2,-4.4903655E-2,1.8336582E-1,-1.2919547E-1,8.695527E-2,1.846005E-1,1.7456388E-1,-1.07294366E-1],"split_indices":[6,5,6,6,6,0,6,4,4,0,5,0,0,0,0,6,4,4,0,0,0,4,6,0,0,0,0,0,0],"split_type":[0,0,0,0,0,0,0,0,0,0,0,0,0,0,0,0,0,0,0,0,0,0,0,0,0,0,0,0,0],"sum_hessian":[5.5120636E2,4.820593E2,6.914707E1,1.2987535E2,3.5218393E2,5.7174316E1,1.1972759E1,1.4529716E1,1.15345634E2,2.745471E2,7.7636856E1,2.4910464E0,9.481712E0,1.3512218E1,1.0174975E0,2.186598E1,9.347966E1,5.7776073E1,1.986078E1,1.0457009E1,1.1408972E1,7.011801E1,2.3361649E1,5.3786125E1,3.9899487E0,2.3446594E1,4.6671413E1,1.2382705E1,1.0978944E1],"tree_param":{"num_deleted":"0","num_feature":"10","num_nodes":"29","size_leaf_vector":"1"}},{"base_weights":[-3.477592E-2,-1.5971844E-1,5.9913814E-1,1.8523039E-1,4.7710022E-1,-1.6932777E-1,1.7954096E-1],"categories":[],"categories_nodes":[],"categories_segments":[],"categories_sizes":[],"default_left":[0,0,0,0,0,0,0],"id":22,"left_children":[1,-1,3,-1,5,-1,-1],"loss_changes":[1.25352135E2,0E0,9.568405E-2,0E0,3.7745552E0,0E0,0E0],"parents":[2147483647,0,0,2,2,4,4],"right_children":[2,-1,4,-1,6,-1,-1],"split_conditions":[8.855626E-1,-1.5971844E-1,1.7994133E0,1.8523039E-1,1.8160288E0,-1.6932777E-1,1.7954096E-1],"split_indices":[6,0,6,0,6,0,0],"split_type":[0,0,0,0,0,0,0],"sum_hessian":[3.9536746E2,2.2158481E2,1.7378264E2,1.4759514E2,2.618751E1,2.3521557E0,2.3835354E1],"tree_param":{"num_deleted":"0","num_feature":"10","num_nodes":"7","size_leaf_vector":"1"}},{"base_weights":[-2.516659E-1,-1.5925048E-1,-4.0229883E-2,-2.6760185E-1,5.852857E-1,-3.0546045E-2,-1.5833127E-1,1.8283239E-1,-8.574648E-2,-1.569553E-1,1.8285516E-1],"categories":[],"categories_nodes":[],"categories_segments":[],"categories_sizes":[],"default_left":[0,0,0,0,0,0,0,0,0,0,0],"id":23,"left_children":[1,-1,3,5,7,9,-1,-1,-1,-1,-1],"loss_changes":[2.0143564E1,0E0,2.795832E1,8.868166E0,1.2773495E0,2.4420351E1,0E0,0E0,0E0,0E0,0E0],"parents":[2147483647,0,0,2,2,3,3,4,4,5,5],"right_children":[2,-1,4,6,8,10,-1,-1,-1,-1,-1],"split_conditions":[-4.4903655E-2,-1.5925048E-1,5.3730255E-1,8.6894715E-1,8.6894715E-1,7.372658E-1,-1.5833127E-1,1.8283239E-1,-8.574648E-2,-1.569553E-1,1.8285516E-1],"split_indices":[6,0,5,6,6,4,0,0,0,0,0],"split_type":[0,0,0,0,0,0,0,0,0,0,0],"sum_hessian":[3.406256E2,1.4614838E2,1.9447725E2,1.4305106E2,5.1426193E1,7.543502E1,6.761603E1,5.0330914E1,1.0952804E0,4.272976E1,3.270526E1],"tree_param":{"num_deleted":"0","num_feature":"10","num_nodes":"11","size_leaf_vector":"1"}},{"base_weights":[-2.6142722E-1,-4.9293857E-2,-1.5627974E-1,4.3983874E-1,-1.558915E-1,1.741682E-1,-1.431047E-1],"categories":[],"categories_nodes":[],"categories_segments":[],"categories_sizes":[],"default_left":[0,0,0,0,0,0,0],"id":24,"left_children":[1,3,-1,5,-1,-1,-1],"loss_changes":[1.4415224E1,3.3688816E1,0E0,9.545592E0,0E0,0E0,0E0],"parents":[2147483647,0,0,1,1,3,3],"right_children":[2,4,-1,6,-1,-1,-1],"split_conditions":[-2.2212443E-1,-4.4903655E-2,-1.5627974E-1,4.004619E-2,-1.558915E-1,1.741682E-1,-1.431047E-1],"split_indices":[5,6,0,4,0,0,0],"split_type":[0,0,0,0,0,0,0],"sum_hessian":[2.6132474E2,1.4444095E2,1.1688378E2,7.083807E1,7.360288E1,6.173029E1,9.107781E0],"tree_param":{"num_deleted":"0","num_feature":"10","num_nodes":"7","size_leaf_vector":"1"}},{"base_weights":[3.2693842E-1,4.3687266E-1,-4.5875844E-1,2.4193972E-1,5.0950474E-1,-1.542152E-1,-1.8555115E-1,-4.5245054E-1,3.2904986E-1,1.7445365E-1,2.4833904E-1,1.698835E-1,-1.3933729E-1,-1.4373463E-1,-3.2324493E-2,1.0910898E-1,4.1333577E-1,5.0008714E-1,-1.4828755E-1,-1.4729068E-1,1.6778609E-1,5.263783E-1,-1.1328954E-1,1.7214993E-1,-1.2054668E-1,5.1066954E-2,1.736542E-1,1.322059E-1,-9.504662E-2],"categories":[],"categories_nodes":[],"categories_segments":[],"categories_sizes":[],"default_left":[0,0,0,0,0,0,0,0,0,0,0,0,0,0,0,0,0,0,0,0,0,0,0,0,0,0,0,0,0],"id":25,"left_children":[1,3,5,7,9,-1,11,13,15,-1,17,-1,-1,-1,-1,19,21,23,-1,-1,-1,25,27,-1,-1,-1,-1,-1,-1],"loss_changes":[3.820919E1,5.3495483E0,7.2792244E-1,6.6110716E0,5.1345673E0,0E0,2.5147297E0,6.1700106E-2,1.7253513E0,0E0,1.19158535E1,0E0,0E0,0E0,0E0,7.789413E0,4.148593E0,3.363943E0,0E0,0E0,0E0,9.614935E-1,1.6010169E0,0E0,0E0,0E0,0E0,0E0,0E0],"parents":[2147483647,0,0,1,1,2,2,3,3,4,4,6,6,7,7,8,8,10,10,15,15,16,16,17,17,21,21,22,22],"right_children":[2,4,6,8,10,-1,12,14,16,-1,18,-1,-1,-1,-1,20,22,24,-1,-1,-1,26,28,-1,-1,-1,-1,-1,-1],"split_conditions":[8.855626E-1,-2.2212443E-1,1.7994133E0,-9.4213897E-1,-4.4903655E-2,-1.542152E-1,1.8160288E0,-3.8898185E-1,-1.9444287E-1,1.7445365E-1,5.3730255E-1,1.698835E-1,-1.3933729E-1,-1.4373463E-1,-3.2324493E-2,4.004619E-2,7.372658E-1,7.372658E-1,-1.4828755E-1,-1.4729068E-1,1.6778609E-1,-4.4903655E-2,-4.4903655E-2,1.7214993E-1,-1.2054668E-1,5.1066954E-2,1.736542E-1,1.322059E-1,-9.504662E-2],"split_indices":[6,5,6,6,6,0,6,3,6,0,5,0,0,0,0,4,4,4,0,0,0,6,6,0,0,0,0,0,0],"split_type":[0,0,0,0,0,0,0,0,0,0,0,0,0,0,0,0,0,0,0,0,0,0,0,0,0,0,0,0,0],"sum_hessian":[4.3904373E2,3.855428E2,5.3500942E1,1.0583353E2,2.7970926E2,4.376263E1,9.738312E0,1.1329274E1,9.450425E1,2.1829527E2,6.141399E1,2.3562834E0,7.382028E0,1.0153869E1,1.1754057E0,2.6818058E1,6.768619E1,4.6109653E1,1.5304338E1,1.1456359E1,1.5361699E1,5.5725033E1,1.1961159E1,4.296067E1,3.1489832E0,7.700307E0,4.8024727E1,2.900735E0,9.060424E0],"tree_param":{"num_deleted":"0","num_feature":"10","num_nodes":"29","size_leaf_vector":"1"}},{"base_weights":[-3.4177344E-2,-1.5685907E-1,5.6263703E-1,1.7441106E-1,4.3760666E-1,-1.4675122E-1,1.678006E-1],"categories":[],"categories_nodes":[],"categories_segments":[],"categories_sizes":[],"default_left":[0,0,0,0,0,0,0],"id":26,"left_children":[1,-1,3,-1,5,-1,-1],"loss_changes":[9.069048E1,0E0,7.3532104E-2,0E0,2.788126E0,0E0,0E0],"parents":[2147483647,0,0,2,2,4,4],"right_children":[2,-1,4,-1,6,-1,-1],"split_conditions":[8.855626E-1,-1.5685907E-1,1.7994133E0,1.7441106E-1,1.8160288E0,-1.4675122E-1,1.678006E-1],"split_indices":[6,0,6,0,6,0,0],"split_type":[0,0,0,0,0,0,0],"sum_hessian":[3.0894254E2,1.6992648E2,1.3901607E2,1.177273E2,2.1288761E1,2.121123E0,1.9167637E1],"tree_param":{"num_deleted":"0","num_feature":"10","num_nodes":"7","size_leaf_vector":"1"}},{"base_weights":[-2.4366657E-1,-1.5623984E-1,-3.9105125E-2,-2.5842074E-1,5.4853076E-1,-2.9159274E-2,-1.5505715E-1,1.7162609E-1,-2.3059795E-2,-1.5339616E-1,1.7134708E-1],"categories":[],"categories_nodes":[],"categories_segments":[],"categories_sizes":[],"default_left":[0,0,0,0,0,0,0,0,0,0,0],"id":27,"left_children":[1,-1,3,5,7,9,-1,-1,-1,-1,-1],"loss_changes":[1.5031455E1,0E0,1.9967735E1,6.6626735E0,6.6463184E-1,1.7885822E1,0E0,0E0,0E0,0E0,0E0],"parents":[2147483647,0,0,2,2,3,3,4,4,5,5],"right_children":[2,-1,4,6,8,10,-1,-1,-1,-1,-1],"split_conditions":[-4.4903655E-2,-1.5623984E-1,5.3730255E-1,8.6894715E-1,8.5233164E-1,7.372658E-1,-1.5505715E-1,1.7162609E-1,-2.3059795E-2,-1.5339616E-1,1.7134708E-1],"split_indices":[6,0,5,6,6,4,0,0,0,0,0],"split_type":[0,0,0,0,0,0,0,0,0,0,0],"sum_hessian":[2.6450778E2,1.11672195E2,1.5283559E2,1.1170547E2,4.1130127E1,5.978364E1,5.1921825E1,3.9719303E1,1.4108225E0,3.3236797E1,2.6546843E1],"tree_param":{"num_deleted":"0","num_feature":"10","num_nodes":"11","size_leaf_vector":"1"}},{"base_weights":[-2.5415948E-1,-4.694162E-2,-1.5390581E-1,4.173971E-1,-1.5333603E-1,1.6631654E-1,-1.3794133E-1],"categories":[],"categories_nodes":[],"categories_segments":[],"categories_sizes":[],"default_left":[0,0,0,0,0,0,0],"id":28,"left_children":[1,3,-1,5,-1,-1,-1],"loss_changes":[1.0815478E1,2.4641153E1,0E0,7.129573E0,0E0,0E0,0E0],"parents":[2147483647,0,0,1,1,3,3],"right_children":[2,4,-1,6,-1,-1,-1],"split_conditions":[-2.2212443E-1,-4.4903655E-2,-1.5390581E-1,4.004619E-2,-1.5333603E-1,1.6631654E-1,-1.3794133E-1],"split_indices":[5,6,0,4,0,0,0],"split_type":[0,0,0,0,0,0,0],"sum_hessian":[2.0107835E2,1.1233517E2,8.874319E1,5.620827E1,5.6126896E1,4.8934273E1,7.273995E0],"tree_param":{"num_deleted":"0","num_feature":"10","num_nodes":"7","size_leaf_vector":"1"}},{"base_weights":[3.1279737E-1,4.1684598E-1,-4.4416353E-1,2.2903062E-1,4.880378E-1,-1.5119432E-1,-1.6280213E-1,-4.3122074E-1,3.1086102E-1,1.67157E-1,2.3597066E-1,1.476729E-1,-1.3302004E-1,-1.381953E-1,-2.729836E-2,1.4929777E-1,4.1243213E-1,4.752066E-1,-1.437646E-1,-1.4533456E-1,1.6173205E-1,1.646918E-1,1.3267733E-1,1.6400188E-1,-1.1179469E-1,1.5147685E-1,-8.271454E-2],"categories":[],"categories_nodes":[],"categories_segments":[],"categories_sizes":[],"default_left":[0,0,0,0,0,0,0,0,0,0,0,0,0,0,0,0,0,0,0,0,0,0,0,0,0,0,0],"id":29,"left_children":[1,3,5,7,9,-1,11,13,15,-1,17,-1,-1,-1,-1,19,21,23,-1,-1,-1,-1,25,-1,-1,-1,-1],"loss_changes":[2.7339977E1,3.9479942E0,6.2732506E-1,4.7448883E0,3.6909142E0,0E0,1.8480382E0,5.65058E-2,1.1939836E0,0E0,8.601744E0,0E0,0E0,0E0,0E0,7.9443665E0,1.6999302E0,2.456379E0,0E0,0E0,0E0,0E0,2.6537735E0,0E0,0E0,0E0,0E0],"parents":[2147483647,0,0,1,1,2,2,3,3,4,4,6,6,7,7,8,8,10,10,15,15,16,16,17,17,22,22],"right_children":[2,4,6,8,10,-1,12,14,16,-1,18,-1,-1,-1,-1,20,22,24,-1,-1,-1,-1,26,-1,-1,-1,-1],"split_conditions":[8.855626E-1,-2.2212443E-1,1.7994133E0,-9.4213897E-1,-4.4903655E-2,-1.5119432E-1,1.8160288E0,-3.8898185E-1,4.004619E-2,1.67157E-1,5.3730255E-1,1.476729E-1,-1.3302004E-1,-1.381953E-1,-2.729836E-2,-4.4903655E-2,7.372658E-1,7.372658E-1,-1.437646E-1,-1.4533456E-1,1.6173205E-1,1.646918E-1,-4.4903655E-2,1.6400188E-1,-1.1179469E-1,1.5147685E-1,-8.271454E-2],"split_indices":[6,5,6,6,6,0,6,3,4,0,5,0,0,0,0,6,4,4,0,0,0,0,6,0,0,0,0],"split_type":[0,0,0,0,0,0,0,0,0,0,0,0,0,0,0,0,0,0,0,0,0,0,0,0,0,0,0],"sum_hessian":[3.4377615E2,3.0262756E2,4.1148582E1,8.434062E1,2.1828696E2,3.3281666E1,7.8669147E0,8.8295355E0,7.5511086E1,1.703442E2,4.794276E1,2.1330733E0,5.7338414E0,7.800796E0,1.0287393E0,3.0101023E1,4.5410065E1,3.617684E1,1.1765921E1,1.137116E1,1.8729864E1,2.9869337E1,1.55407295E1,3.3692135E1,2.4847043E0,8.006512E0,7.5342183E0],"tree_param":{"num_deleted":"0","num_feature":"10","num_nodes":"27","size_leaf_vector":"1"}},{"base_weights":[-3.3583045E-2,-1.5463662E-1,5.366015E-1,1.6683938E-1,4.0590525E-1,-1.2990439E-1,1.5885426E-1],"categories":[],"categories_nodes":[],"categories_segments":[],"categories_sizes":[],"default_left":[0,0,0,0,0,0,0],"id":30,"left_children":[1,-1,3,-1,5,-1,-1],"loss_changes":[6.611111E1,0E0,5.5641174E-2,0E0,2.0993004E0,0E0,0E0],"parents":[2147483647,0,0,2,2,4,4],"right_children":[2,-1,4,-1,6,-1,-1],"split_conditions":[8.855626E-1,-1.5463662E-1,1.7994133E0,1.6683938E-1,1.8160288E0,-1.2990439E-1,1.5885426E-1],"split_indices":[6,0,6,0,6,0,0],"split_type":[0,0,0,0,0,0,0],"sum_hessian":[2.386107E2,1.2937215E2,1.0923855E2,9.22053E1,1.7033253E1,1.865978E0,1.5167275E1],"tree_param":{"num_deleted":"0","num_feature":"10","num_nodes":"7","size_leaf_vector":"1"}},{"base_weights":[-2.3667935E-1,-1.5386307E-1,-3.6357876E-2,-2.4922977E-1,5.2036417E-1,-2.3406504E-2,-1.5230864E-1,1.634993E-1,-1.9598173E-2,-1.5004781E-1,1.6281441E-1],"categories":[],"categories_nodes":[],"categories_segments":[],"categories_sizes":[],"default_left":[0,0,0,0,0,0,0,0,0,0,0],"id":31,"left_children":[1,-1,3,5,7,9,-1,-1,-1,-1,-1],"loss_changes":[1.13047E1,0E0,1.431525E1,5.0816154E0,5.1795864E-1,1.3124687E1,0E0,0E0,0E0,0E0,0E0],"parents":[2147483647,0,0,2,2,3,3,4,4,5,5],"right_children":[2,-1,4,6,8,10,-1,-1,-1,-1,-1],"split_conditions":[-4.4903655E-2,-1.5386307E-1,5.3730255E-1,8.6894715E-1,8.5233164E-1,7.372658E-1,-1.5230864E-1,1.634993E-1,-1.9598173E-2,-1.5004781E-1,1.6281441E-1],"split_indices":[6,0,5,6,6,4,0,0,0,0,0],"split_type":[0,0,0,0,0,0,0,0,0,0,0],"sum_hessian":[2.0365741E2,8.495862E1,1.18698784E2,8.6265915E1,3.2432873E1,4.662227E1,3.9643642E1,3.119052E1,1.2423537E0,2.5372017E1,2.1250254E1],"tree_param":{"num_deleted":"0","num_feature":"10","num_nodes":"11","size_leaf_vector":"1"}},{"base_weights":[-2.4942394E-1,-4.6461605E-2,-1.5191941E-1,4.007887E-1,-1.5112968E-1,1.6019973E-1,-1.3200349E-1],"categories":[],"categories_nodes":[],"categories_segments":[],"categories_sizes":[],"default_left":[0,0,0,0,0,0,0],"id":32,"left_children":[1,3,-1,5,-1,-1,-1],"loss_changes":[8.033318E0,1.8079645E1,0E0,5.24681E0,0E0,0E0,0E0],"parents":[2147483647,0,0,1,1,3,3],"right_children":[2,4,-1,6,-1,-1,-1],"split_conditions":[-2.2212443E-1,-4.4903655E-2,-1.5191941E-1,4.004619E-2,-1.5112968E-1,1.6019973E-1,-1.3200349E-1],"split_indices":[5,6,0,4,0,0,0],"split_type":[0,0,0,0,0,0,0],"sum_hessian":[1.5347575E2,8.640918E1,6.706658E1,4.3747265E1,4.266191E1,3.8079166E1,5.668101E0],"tree_param":{"num_deleted":"0","num_feature":"10","num_nodes":"7","size_leaf_vector":"1"}},{"base_weights":[3.023328E-1,4.0232185E-1,-4.3019584E-1,2.2022274E-1,4.7213307E-1,-1.4837636E-1,-1.4171332E-1,-4.091647E-1,2.9898635E-1,1.6191995E-1,2.251699E-1,1.3094498E-1,-1.2638567E-1,-1.3198318E-1,-3.0217368E-2,1.4329383E-1,3.935476E-1,4.551561E-1,-1.3911197E-1,-1.4003123E-1,1.5430683E-1,1.5795371E-1,1.2847635E-1,1.5771481E-1,-1.02915935E-1,1.4254418E-1,-7.051731E-2],"categories":[],"categories_nodes":[],"categories_segments":[],"categories_sizes":[],"default_left":[0,0,0,0,0,0,0,0,0,0,0,0,0,0,0,0,0,0,0,0,0,0,0,0,0,0,0],"id":33,"left_children":[1,3,5,7,9,-1,11,13,15,-1,17,-1,-1,-1,-1,19,21,23,-1,-1,-1,-1,25,-1,-1,-1,-1],"loss_changes":[1.9726141E1,2.8886757E0,5.3447914E-1,3.4492908E0,2.7048264E0,0E0,1.3704573E0,3.0560017E-2,8.3027935E-1,0E0,6.246984E0,0E0,0E0,0E0,0E0,5.7476225E0,1.2327666E0,1.8174396E0,0E0,0E0,0E0,0E0,1.8317016E0,0E0,0E0,0E0,0E0],"parents":[2147483647,0,0,1,1,2,2,3,3,4,4,6,6,7,7,8,8,10,10,15,15,16,16,17,17,22,22],"right_children":[2,4,6,8,10,-1,12,14,16,-1,18,-1,-1,-1,-1,20,22,24,-1,-1,-1,-1,26,-1,-1,-1,-1],"split_conditions":[8.855626E-1,-2.2212443E-1,1.7994133E0,-9.4213897E-1,-4.4903655E-2,-1.4837636E-1,1.8160288E0,-4.665046E-1,4.004619E-2,1.6191995E-1,5.3730255E-1,1.3094498E-1,-1.2638567E-1,-1.3198318E-1,-3.0217368E-2,-4.4903655E-2,7.372658E-1,7.372658E-1,-1.3911197E-1,-1.4003123E-1,1.5430683E-1,1.5795371E-1,-4.4903655E-2,1.5771481E-1,-1.02915935E-1,1.4254418E-1,-7.051731E-2],"split_indices":[6,5,6,6,6,0,6,3,4,0,5,0,0,0,0,6,4,4,0,0,0,0,6,0,0,0,0],"split_type":[0,0,0,0,0,0,0,0,0,0,0,0,0,0,0,0,0,0,0,0,0,0,0,0,0,0,0],"sum_hessian":[2.6595477E2,2.3440907E2,3.154571E1,6.611251E1,1.6829657E2,2.5205221E1,6.340489E0,6.8867483E0,5.922576E1,1.3119868E2,3.7097878E1,1.8836235E0,4.4568653E0,5.8742113E0,1.0125372E0,2.3329588E1,3.589617E1,2.8066845E1,9.0310335E0,8.725702E0,1.4603886E1,2.3248152E1,1.2648021E1,2.6100958E1,1.9658867E0,6.317012E0,6.331009E0],"tree_param":{"num_deleted":"0","num_feature":"10","num_nodes":"27","size_leaf_vector":"1"}},{"base_weights":[-3.291723E-2,-1.5284093E-1,5.170615E-1,1.6131411E-1,3.7845847E-1,-1.1645748E-1,1.5150364E-1],"categories":[],"categories_nodes":[],"categories_segments":[],"categories_sizes":[],"default_left":[0,0,0,0,0,0,0],"id":34,"left_children":[1,-1,3,-1,5,-1,-1],"loss_changes":[4.843612E1,0E0,4.216385E-2,0E0,1.6034377E0,0E0,0E0],"parents":[2147483647,0,0,2,2,4,4],"right_children":[2,-1,4,-1,6,-1,-1],"split_conditions":[8.855626E-1,-1.5284093E-1,1.7994133E0,1.6131411E-1,1.8160288E0,-1.1645748E-1,1.5150364E-1],"split_indices":[6,0,6,0,6,0,0],"split_type":[0,0,0,0,0,0,0],"sum_hessian":[1.8279947E2,9.797688E1,8.482259E1,7.131669E1,1.3505899E1,1.6206635E0,1.1885236E1],"tree_param":{"num_deleted":"0","num_feature":"10","num_nodes":"7","size_leaf_vector":"1"}},{"base_weights":[-2.3026665E-1,-1.5184793E-1,-3.3614095E-2,2.0711103E-1,-1.5000808E-1,-1.7243465E-2,1.5741113E-1,-1.4685331E-1,1.5607308E-1],"categories":[],"categories_nodes":[],"categories_segments":[],"categories_sizes":[],"default_left":[0,0,0,0,0,0,0,0,0],"id":35,"left_children":[1,-1,3,5,-1,7,-1,-1,-1],"loss_changes":[8.495665E0,0E0,1.0509071E1,4.4149837E0,0E0,9.69862E0,0E0,0E0,0E0],"parents":[2147483647,0,0,2,2,3,3,5,5],"right_children":[2,-1,4,6,-1,8,-1,-1,-1],"split_conditions":[-4.4903655E-2,-1.5184793E-1,8.6894715E-1,5.3730255E-1,-1.5000808E-1,7.372658E-1,1.5741113E-1,-1.4685331E-1,1.5607308E-1],"split_indices":[6,0,6,5,0,4,0,0,0],"split_type":[0,0,0,0,0,0,0,0,0],"sum_hessian":[1.5590102E2,6.422411E1,9.1676895E1,6.083478E1,3.0842115E1,3.6204693E1,2.4630087E1,1.931908E1,1.6885612E1],"tree_param":{"num_deleted":"0","num_feature":"10","num_nodes":"9","size_leaf_vector":"1"}},{"base_weights":[-2.4537829E-1,-4.6250604E-2,-1.5013672E-1,3.8675275E-1,-1.4907408E-1,1.5535162E-1,-1.2571298E-1],"categories":[],"categories_nodes":[],"categories_segments":[],"categories_sizes":[],"default_left":[0,0,0,0,0,0,0],"id":36,"left_children":[1,3,-1,5,-1,-1,-1],"loss_changes":[5.957317E0,1.3310296E1,0E0,3.897766E0,0E0,0E0,0E0],"parents":[2147483647,0,0,1,1,3,3],"right_children":[2,4,-1,6,-1,-1,-1],"split_conditions":[-2.2212443E-1,-4.4903655E-2,-1.5013672E-1,4.004619E-2,-1.4907408E-1,1.5535162E-1,-1.2571298E-1],"split_indices":[5,6,0,4,0,0,0],"split_type":[0,0,0,0,0,0,0],"sum_hessian":[1.167419E2,6.62246E1,5.0517292E1,3.3846355E1,3.2378246E1,2.9418024E1,4.428333E0],"tree_param":{"num_deleted":"0","num_feature":"10","num_nodes":"7","size_leaf_vector":"1"}},{"base_weights":[2.937022E-1,3.9056528E-1,-4.160829E-1,2.1239923E-1,4.599356E-1,-1.4553481E-1,-1.21868305E-1,-3.8583082E-1,2.888467E-1,1.5803002E-1,2.1555045E-1,1.1753874E-1,-1.1932297E-1,-1.2490202E-1,-3.3667192E-2,1.3775498E-1,3.7690997E-1,4.3774492E-1,-1.3402833E-1,-1.3447446E-1,1.4787975E-1,1.5237768E-1,1.2489802E-1,1.5251254E-1,-9.399981E-2,1.3427192E-1,-5.8784403E-2],"categories":[],"categories_nodes":[],"categories_segments":[],"categories_sizes":[],"default_left":[0,0,0,0,0,0,0,0,0,0,0,0,0,0,0,0,0,0,0,0,0,0,0,0,0,0,0],"id":37,"left_children":[1,3,5,7,9,-1,11,13,15,-1,17,-1,-1,-1,-1,19,21,23,-1,-1,-1,-1,25,-1,-1,-1,-1],"loss_changes":[1.4292612E1,2.1438084E0,4.519663E-1,2.5207937E0,2.0044022E0,0E0,1.0227535E0,6.680727E-3,5.772369E-1,0E0,4.542671E0,0E0,0E0,0E0,0E0,4.1729536E0,9.0389013E-1,1.3594713E0,0E0,0E0,0E0,0E0,1.2624817E0,0E0,0E0,0E0,0E0],"parents":[2147483647,0,0,1,1,2,2,3,3,4,4,6,6,7,7,8,8,10,10,15,15,16,16,17,17,22,22],"right_children":[2,4,6,8,10,-1,12,14,16,-1,18,-1,-1,-1,-1,20,22,24,-1,-1,-1,-1,26,-1,-1,-1,-1],"split_conditions":[8.855626E-1,-2.2212443E-1,1.7994133E0,-9.4213897E-1,-4.4903655E-2,-1.4553481E-1,1.8160288E0,-5.440274E-1,4.004619E-2,1.5803002E-1,5.3730255E-1,1.1753874E-1,-1.1932297E-1,-1.2490202E-1,-3.3667192E-2,-4.4903655E-2,7.372658E-1,7.372658E-1,-1.3402833E-1,-1.3447446E-1,1.4787975E-1,1.5237768E-1,-4.4903655E-2,1.5251254E-1,-9.399981E-2,1.3427192E-1,-5.8784403E-2],"split_indices":[6,5,6,6,6,0,6,3,4,0,5,0,0,0,0,6,4,4,0,0,0,0,6,0,0,0,0],"split_type":[0,0,0,0,0,0,0,0,0,0,0,0,0,0,0,0,0,0,0,0,0,0,0,0,0,0,0],"sum_hessian":[2.0452287E2,1.803593E2,2.4163574E1,5.1682713E1,1.2867659E2,1.9045885E1,5.117687E0,5.397586E0,4.6285126E1,1.00137E2,2.8539587E1,1.6413639E0,3.4763236E0,4.3867564E0,1.0108294E0,1.7987654E1,2.8297472E1,2.162412E1,6.915466E0,6.6891937E0,1.1298461E1,1.7950113E1,1.0347359E1,2.0060776E1,1.5633456E0,4.9620476E0,5.385311E0],"tree_param":{"num_deleted":"0","num_feature":"10","num_nodes":"27","size_leaf_vector":"1"}},{"base_weights":[-3.2584265E-2,-1.5131444E-1,5.014777E-1,1.5707192E-1,3.53117E-1,-1.052226E-1,1.4498167E-1],"categories":[],"categories_nodes":[],"categories_segments":[],"categories_sizes":[],"default_left":[0,0,0,0,0,0,0],"id":38,"left_children":[1,-1,3,-1,5,-1,-1],"loss_changes":[3.560571E1,0E0,3.24955E-2,0E0,1.2383522E0,0E0,0E0],"parents":[2147483647,0,0,2,2,4,4],"right_children":[2,-1,4,-1,6,-1,-1],"split_conditions":[8.855626E-1,-1.5131444E-1,1.7994133E0,1.5707192E-1,1.8160288E0,-1.052226E-1,1.4498167E-1],"split_indices":[6,0,6,0,6,0,0],"split_type":[0,0,0,0,0,0,0],"sum_hessian":[1.3930608E2,7.399422E1,6.531187E1,5.4644604E1,1.0667259E1,1.4002311E0,9.267028E0],"tree_param":{"num_deleted":"0","num_feature":"10","num_nodes":"7","size_leaf_vector":"1"}},{"base_weights":[-2.2432952E-1,-1.5003468E-1,-3.0643562E-2,2.0461984E-1,-1.4760727E-1,-1.0353726E-2,1.5215875E-1,-1.4357184E-1,1.5038148E-1],"categories":[],"categories_nodes":[],"categories_segments":[],"categories_sizes":[],"default_left":[0,0,0,0,0,0,0,0,0],"id":39,"left_children":[1,-1,3,5,-1,7,-1,-1,-1],"loss_changes":[6.3897896E0,0E0,7.862282E0,3.1315813E0,0E0,7.205956E0,0E0,0E0,0E0],"parents":[2147483647,0,0,2,2,3,3,5,5],"right_children":[2,-1,4,6,-1,8,-1,-1,-1],"split_conditions":[-4.4903655E-2,-1.5003468E-1,8.6894715E-1,5.3730255E-1,-1.4760727E-1,7.372658E-1,1.5215875E-1,-1.4357184E-1,1.5038148E-1],"split_indices":[6,0,6,5,0,4,0,0,0],"split_type":[0,0,0,0,0,0,0,0,0],"sum_hessian":[1.1891028E2,4.840506E1,7.050522E1,4.7063496E1,2.3441725E1,2.807945E1,1.8984047E1,1.4695404E1,1.3384047E1],"tree_param":{"num_deleted":"0","num_feature":"10","num_nodes":"9","size_leaf_vector":"1"}},{"base_weights":[-2.416915E-1,-4.6228103E-2,-1.484076E-1,3.7399104E-1,-1.4700162E-1,1.5123858E-1,-1.1900712E-1],"categories":[],"categories_nodes":[],"categories_segments":[],"categories_sizes":[],"default_left":[0,0,0,0,0,0,0],"id":40,"left_children":[1,3,-1,5,-1,-1,-1],"loss_changes":[4.4127192E0,9.82521E0,0E0,2.9203749E0,0E0,0E0,0E0],"parents":[2147483647,0,0,1,1,3,3],"right_children":[2,4,-1,6,-1,-1,-1],"split_conditions":[-2.2212443E-1,-4.4903655E-2,-1.484076E-1,4.004619E-2,-1.4700162E-1,1.5123858E-1,-1.1900712E-1],"split_indices":[5,6,0,4,0,0,0],"split_type":[0,0,0,0,0,0,0],"sum_hessian":[8.8694214E1,5.0703987E1,3.7990227E1,2.6124025E1,2.4579962E1,2.2645899E1,3.4781272E0],"tree_param":{"num_deleted":"0","num_feature":"10","num_nodes":"7","size_leaf_vector":"1"}},{"base_weights":[2.8600115E-1,3.8029155E-1,-4.0119594E-1,2.0495097E-1,4.4993412E-1,-1.4246687E-1,-1.0316642E-1,-2.35303E-1,3.0266163E-1,1.5501678E-1,2.0592368E-1,1.0631556E-1,-1.11831695E-1,-1.28966E-1,9.830538E-2,3.5781717E-1,1.2162116E-1,4.2146328E-1,-1.2840372E-1,9.571802E-2,1.4836766E-1,1.2620565E-1,-1.5955737E-1,1.4785786E-1,-8.5206434E-2,-1.21230446E-1,1.3476528E-1,-1.15374945E-1,7.290257E-2],"categories":[],"categories_nodes":[],"categories_segments":[],"categories_sizes":[],"default_left":[0,0,0,0,0,0,0,0,0,0,0,0,0,0,0,0,0,0,0,0,0,0,0,0,0,0,0,0,0],"id":41,"left_children":[1,3,5,7,9,-1,11,13,15,-1,17,-1,-1,-1,-1,19,21,23,-1,25,-1,-1,27,-1,-1,-1,-1,-1,-1],"loss_changes":[1.0380079E1,1.6089306E0,3.799641E-1,1.8538218E0,1.5049095E0,0E0,7.6734364E-1,1.0270234E0,2.9947877E-1,0E0,3.3106813E0,0E0,0E0,0E0,0E0,8.778217E-1,8.69024E-1,1.0264933E0,0E0,1.9643192E0,0E0,0E0,6.043782E-1,0E0,0E0,0E0,0E0,0E0,0E0],"parents":[2147483647,0,0,1,1,2,2,3,3,4,4,6,6,7,7,8,8,10,10,15,15,16,16,17,17,19,19,22,22],"right_children":[2,4,6,8,10,-1,12,14,16,-1,18,-1,-1,-1,-1,20,22,24,-1,26,-1,-1,28,-1,-1,-1,-1,-1,-1],"split_conditions":[8.855626E-1,-2.2212443E-1,1.7994133E0,-6.5717345E-1,-4.4903655E-2,-1.4246687E-1,1.8160288E0,-4.4903655E-2,7.372658E-1,1.5501678E-1,5.3730255E-1,1.0631556E-1,-1.11831695E-1,-1.28966E-1,9.830538E-2,-4.4903655E-2,-4.4903655E-2,7.372658E-1,-1.2840372E-1,4.004619E-2,1.4836766E-1,1.2620565E-1,8.5233164E-1,1.4785786E-1,-8.5206434E-2,-1.21230446E-1,1.3476528E-1,-1.15374945E-1,7.290257E-2],"split_indices":[6,5,6,4,6,0,6,6,4,0,5,0,0,0,0,6,6,4,0,4,0,0,6,0,0,0,0,0,0],"split_type":[0,0,0,0,0,0,0,0,0,0,0,0,0,0,0,0,0,0,0,0,0,0,0,0,0,0,0,0,0],"sum_hessian":[1.5684145E2,1.3831046E2,1.8530989E1,4.043906E1,9.78714E1,1.438146E1,4.1495285E0,7.089191E0,3.334987E1,7.596208E1,2.1909315E1,1.4219176E0,2.727611E0,5.4440126E0,1.6451783E0,2.4813705E1,8.536162E0,1.6600332E1,5.3089833E0,9.090159E0,1.5723545E1,3.8960903E0,4.640072E0,1.5348433E1,1.2518985E0,3.706428E0,5.383732E0,3.0050075E0,1.6350645E0],"tree_param":{"num_deleted":"0","num_feature":"10","num_nodes":"29","size_leaf_vector":"1"}},{"base_weights":[-3.2332744E-2,-1.4992148E-1,4.883047E-1,1.5364666E-1,3.2860056E-1,-9.5557995E-2,1.3878058E-1],"categories":[],"categories_nodes":[],"categories_segments":[],"categories_sizes":[],"default_left":[0,0,0,0,0,0,0],"id":42,"left_children":[1,-1,3,-1,5,-1,-1],"loss_changes":[2.625792E1,0E0,2.6258469E-2,0E0,9.6481574E-1,0E0,0E0],"parents":[2147483647,0,0,2,2,4,4],"right_children":[2,-1,4,-1,6,-1,-1],"split_conditions":[8.855626E-1,-1.4992148E-1,1.7994133E0,1.5364666E-1,1.8160288E0,-9.5557995E-2,1.3878058E-1],"split_indices":[6,0,6,0,6,0,0],"split_type":[0,0,0,0,0,0,0],"sum_hessian":[1.0589962E2,5.5823696E1,5.0075928E1,4.1649E1,8.4269285E0,1.2093967E0,7.2175317E0],"tree_param":{"num_deleted":"0","num_feature":"10","num_nodes":"7","size_leaf_vector":"1"}},{"base_weights":[-2.1833184E-1,-1.4826812E-1,-2.7371692E-2,2.0312847E-1,-1.4510342E-1,-2.6945337E-3,1.474459E-1,-1.4000578E-1,1.4525443E-1],"categories":[],"categories_nodes":[],"categories_segments":[],"categories_sizes":[],"default_left":[0,0,0,0,0,0,0,0,0],"id":43,"left_children":[1,-1,3,5,-1,7,-1,-1,-1],"loss_changes":[4.8145685E0,0E0,5.905709E0,2.2203612E0,0E0,5.3791146E0,0E0,0E0,0E0],"parents":[2147483647,0,0,2,2,3,3,5,5],"right_children":[2,-1,4,6,-1,8,-1,-1,-1],"split_conditions":[-4.4903655E-2,-1.4826812E-1,8.6894715E-1,5.3730255E-1,-1.4510342E-1,7.372658E-1,1.474459E-1,-1.4000578E-1,1.4525443E-1],"split_indices":[6,0,6,5,0,4,0,0,0],"split_type":[0,0,0,0,0,0,0,0,0],"sum_hessian":[9.0640854E1,3.6425682E1,5.4215176E1,3.638857E1,1.7826605E1,2.181103E1,1.457754E1,1.1189211E1,1.0621818E1],"tree_param":{"num_deleted":"0","num_feature":"10","num_nodes":"9","size_leaf_vector":"1"}},{"base_weights":[-2.3860812E-1,-4.68837E-2,-1.4659353E-1,3.6084202E-1,-1.4466819E-1,1.4743048E-1,-1.11952536E-1],"categories":[],"categories_nodes":[],"categories_segments":[],"categories_sizes":[],"default_left":[0,0,0,0,0,0,0],"id":44,"left_children":[1,3,-1,5,-1,-1,-1],"loss_changes":[3.253785E0,7.23741E0,0E0,2.2079585E0,0E0,0E0,0E0],"parents":[2147483647,0,0,1,1,3,3],"right_children":[2,4,-1,6,-1,-1,-1],"split_conditions":[-2.2212443E-1,-4.4903655E-2,-1.4659353E-1,4.004619E-2,-1.4466819E-1,1.4743048E-1,-1.11952536E-1],"split_indices":[5,6,0,4,0,0,0],"split_type":[0,0,0,0,0,0,0],"sum_hessian":[6.735249E1,3.879364E1,2.8558851E1,2.0120605E1,1.8673035E1,1.7362106E1,2.7584991E0],"tree_param":{"num_deleted":"0","num_feature":"10","num_nodes":"7","size_leaf_vector":"1"}},{"base_weights":[2.7924052E-1,3.7147397E-1,-3.8506216E-1,1.9941938E-1,4.4115654E-1,-1.3899048E-1,-8.57122E-2,-1.0155045E-1,2.7128193E-1,1.5255041E-1,1.9579768E-1,9.664614E-2,-1.0401268E-1,1.1655994E-1,3.4243923E-1,4.052313E-1,-1.221501E-1,-1.2025262E-1,1.3396609E-1,1.3735443E-1,1.1853493E-1,1.4335603E-1,-7.672074E-2,1.18103884E-1,-3.9597422E-2],"categories":[],"categories_nodes":[],"categories_segments":[],"categories_sizes":[],"default_left":[0,0,0,0,0,0,0,0,0,0,0,0,0,0,0,0,0,0,0,0,0,0,0,0,0],"id":45,"left_children":[1,3,5,7,9,-1,11,-1,13,-1,15,-1,-1,17,19,21,-1,-1,-1,-1,23,-1,-1,-1,-1],"loss_changes":[7.5635633E0,1.1931162E0,3.176043E-1,1.3530458E0,1.1434689E0,0E0,5.788249E-1,0E0,2.8306818E-1,0E0,2.4162536E0,0E0,0E0,2.0157626E0,4.5165515E-1,7.813854E-1,0E0,0E0,0E0,0E0,6.0400057E-1,0E0,0E0,0E0,0E0],"parents":[2147483647,0,0,1,1,2,2,3,3,4,4,6,6,8,8,10,10,13,13,14,14,15,15,20,20],"right_children":[2,4,6,8,10,-1,12,-1,14,-1,16,-1,-1,18,20,22,-1,-1,-1,-1,24,-1,-1,-1,-1],"split_conditions":[8.855626E-1,-2.2212443E-1,1.7994133E0,-9.4213897E-1,-4.4903655E-2,-1.3899048E-1,1.8160288E0,-1.0155045E-1,-2.9675778E-2,1.5255041E-1,5.3730255E-1,9.664614E-2,-1.0401268E-1,-4.4903655E-2,7.372658E-1,7.372658E-1,-1.221501E-1,-1.2025262E-1,1.3396609E-1,1.3735443E-1,-4.4903655E-2,1.4335603E-1,-7.672074E-2,1.18103884E-1,-3.9597422E-2],"split_indices":[6,5,6,6,6,0,6,0,4,0,5,0,0,6,4,4,0,0,0,0,6,0,0,0,0],"split_type":[0,0,0,0,0,0,0,0,0,0,0,0,0,0,0,0,0,0,0,0,0,0,0,0,0],"sum_hessian":[1.20109985E2,1.0585378E2,1.42562E1,3.1626358E1,7.4227425E1,1.0868E1,3.3882003E0,3.289876E0,2.8336481E1,5.7400078E1,1.6827349E1,1.2306743E0,2.157526E0,9.757711E0,1.857877E1,1.2732708E1,4.0946403E0,3.716251E0,6.0414605E0,1.1570204E1,7.008566E0,1.1721839E1,1.0108687E0,3.067845E0,3.9407208E0],"tree_param":{"num_deleted":"0","num_feature":"10","num_nodes":"25","size_leaf_vector":"1"}},{"base_weights":[-3.193014E-2,-1.4850068E-1,4.7637317E-1,1.506829E-1,3.0421138E-1,-8.710071E-2,1.3256632E-1],"categories":[],"categories_nodes":[],"categories_segments":[],"categories_sizes":[],"default_left":[0,0,0,0,0,0,0],"id":46,"left_children":[1,-1,3,-1,5,-1,-1],"loss_changes":[1.9407423E1,0E0,2.2628784E-2,0E0,7.569891E-1,0E0,0E0],"parents":[2147483647,0,0,2,2,4,4],"right_children":[2,-1,4,-1,6,-1,-1],"split_conditions":[8.855626E-1,-1.4850068E-1,1.7994133E0,1.506829E-1,1.8160288E0,-8.710071E-2,1.3256632E-1],"split_indices":[6,0,6,0,6,0,0],"split_type":[0,0,0,0,0,0,0],"sum_hessian":[8.044927E1,4.211135E1,3.8337917E1,3.165735E1,6.6805677E0,1.0476265E0,5.6329412E0],"tree_param":{"num_deleted":"0","num_feature":"10","num_nodes":"7","size_leaf_vector":"1"}},{"base_weights":[-2.1274632E-1,-1.4640641E-1,-2.448425E-2,2.011634E-1,-1.421952E-1,2.9412585E-3,1.4288633E-1,-1.3600163E-1,1.4018741E-1],"categories":[],"categories_nodes":[],"categories_segments":[],"categories_sizes":[],"default_left":[0,0,0,0,0,0,0,0,0],"id":47,"left_children":[1,-1,3,5,-1,7,-1,-1,-1],"loss_changes":[3.6197083E0,0E0,4.423157E0,1.5861295E0,0E0,4.0098553E0,0E0,0E0,0E0],"parents":[2147483647,0,0,2,2,3,3,5,5],"right_children":[2,-1,4,6,-1,8,-1,-1,-1],"split_conditions":[-4.4903655E-2,-1.4640641E-1,8.6894715E-1,5.3730255E-1,-1.421952E-1,7.372658E-1,1.4288633E-1,-1.3600163E-1,1.4018741E-1],"split_indices":[6,0,6,5,0,4,0,0,0],"split_type":[0,0,0,0,0,0,0,0,0],"sum_hessian":[6.907695E1,2.7408398E1,4.166855E1,2.8109917E1,1.3558631E1,1.6925842E1,1.1184074E1,8.549066E0,8.376777E0],"tree_param":{"num_deleted":"0","num_feature":"10","num_nodes":"9","size_leaf_vector":"1"}},{"base_weights":[-2.3442586E-1,-4.6671405E-2,-1.4456356E-1,3.4802395E-1,-1.421161E-1,1.4378396E-1,-1.04743116E-1],"categories":[],"categories_nodes":[],"categories_segments":[],"categories_sizes":[],"default_left":[0,0,0,0,0,0,0],"id":48,"left_children":[1,3,-1,5,-1,-1,-1],"loss_changes":[2.4106283E0,5.370488E0,0E0,1.6887796E0,0E0,0E0,0E0],"parents":[2147483647,0,0,1,1,3,3],"right_children":[2,4,-1,6,-1,-1,-1],"split_conditions":[-2.2212443E-1,-4.4903655E-2,-1.4456356E-1,4.004619E-2,-1.421161E-1,1.4378396E-1,-1.04743116E-1],"split_indices":[5,6,0,4,0,0,0],"split_type":[0,0,0,0,0,0,0],"sum_hessian":[5.136979E1,2.9883966E1,2.148582E1,1.5626443E1,1.4257524E1,1.3413596E1,2.2128472E0],"tree_param":{"num_deleted":"0","num_feature":"10","num_nodes":"7","size_leaf_vector":"1"}},{"base_weights":[2.7157077E-1,3.6158574E-1,-3.6736634E-1,1.9124518E-1,4.3286633E-1,-1.34946E-1,-6.969933E-2,-2.1337774E-1,2.808582E-1,1.5038496E-1,1.8483233E-1,8.817029E-2,-9.604238E-2,-1.1614058E-1,7.812425E-2,3.3546832E-1,1.1444626E-1,3.8827145E-1,-1.1527047E-1,8.486125E-2,1.3935219E-1,1.09889455E-1,-1.0434358E-1,1.3831207E-1,-4.3034993E-2,-1.0619723E-1,1.1995854E-1,-1.0156753E-1,6.640584E-2],"categories":[],"categories_nodes":[],"categories_segments":[],"categories_sizes":[],"default_left":[0,0,0,0,0,0,0,0,0,0,0,0,0,0,0,0,0,0,0,0,0,0,0,0,0,0,0,0,0],"id":49,"left_children":[1,3,5,7,9,-1,11,13,15,-1,17,-1,-1,-1,-1,19,21,23,-1,25,-1,-1,27,-1,-1,-1,-1,-1,-1],"loss_changes":[5.5014343E0,9.167652E-1,2.6372993E-1,1.0054748E0,8.7876797E-1,0E0,4.3932483E-1,5.3684855E-1,1.5954542E-1,0E0,1.765387E0,0E0,0E0,0E0,0E0,4.7415328E-1,4.1839528E-1,4.83294E-1,0E0,1.0568917E0,0E0,0E0,4.1595033E-1,0E0,0E0,0E0,0E0,0E0,0E0],"parents":[2147483647,0,0,1,1,2,2,3,3,4,4,6,6,7,7,8,8,10,10,15,15,16,16,17,17,19,19,22,22],"right_children":[2,4,6,8,10,-1,12,14,16,-1,18,-1,-1,-1,-1,20,22,24,-1,26,-1,-1,28,-1,-1,-1,-1,-1,-1],"split_conditions":[8.855626E-1,-2.2212443E-1,1.7994133E0,-6.5717345E-1,-4.4903655E-2,-1.34946E-1,1.8160288E0,-4.4903655E-2,7.372658E-1,1.5038496E-1,5.3730255E-1,8.817029E-2,-9.604238E-2,-1.1614058E-1,7.812425E-2,-4.4903655E-2,-4.4903655E-2,5.978219E-1,-1.1527047E-1,4.004619E-2,1.3935219E-1,1.09889455E-1,8.5233164E-1,1.3831207E-1,-4.3034993E-2,-1.0619723E-1,1.1995854E-1,-1.0156753E-1,6.640584E-2],"split_indices":[6,5,6,4,6,0,6,6,4,0,5,0,0,0,0,6,6,4,0,4,0,0,6,0,0,0,0,0,0],"split_type":[0,0,0,0,0,0,0,0,0,0,0,0,0,0,0,0,0,0,0,0,0,0,0,0,0,0,0,0,0],"sum_hessian":[9.2344406E1,8.13217E1,1.1022708E1,2.5077215E1,5.6244484E1,8.231448E0,2.7912602E0,4.2964897E0,2.0780725E1,4.3284115E1,1.296037E1,1.0676619E0,1.7235982E0,3.2774312E0,1.0190586E0,1.4881338E1,5.8993864E0,9.7813015E0,3.179068E0,5.6214805E0,9.259858E0,2.429061E0,3.4703255E0,8.720752E0,1.0605499E0,2.2972386E0,3.3242419E0,1.9956921E0,1.4746332E0],"tree_param":{"num_deleted":"0","num_feature":"10","num_nodes":"29","size_leaf_vector":"1"}},{"base_weights":[-3.1713616E-2,-1.4702143E-1,4.6482223E-1,1.4791192E-1,2.7970785E-1,-5.392527E-2,1.2484517E-1],"categories":[],"categories_nodes":[],"categories_segments":[],"categories_sizes":[],"default_left":[0,0,0,0,0,0,0],"id":50,"left_children":[1,-1,3,-1,5,-1,-1],"loss_changes":[1.4388969E1,0E0,2.0783901E-2,0E0,4.7160217E-1,0E0,0E0],"parents":[2147483647,0,0,2,2,4,4],"right_children":[2,-1,4,-1,6,-1,-1],"split_conditions":[8.855626E-1,-1.4702143E-1,1.7994133E0,1.4791192E-1,1.8326443E0,-5.392527E-2,1.2484517E-1],"split_indices":[6,0,6,0,6,0,0],"split_type":[0,0,0,0,0,0,0],"sum_hessian":[6.1222008E1,3.1841648E1,2.9380362E1,2.4050802E1,5.329558E0,1.1476245E0,4.1819334E0],"tree_param":{"num_deleted":"0","num_feature":"10","num_nodes":"7","size_leaf_vector":"1"}},{"base_weights":[-2.0596765E-1,-1.443241E-1,-2.0662934E-2,2.0023078E-1,-1.3898839E-1,1.1255471E-2,1.3819495E-1,-1.3145238E-1,1.353009E-1],"categories":[],"categories_nodes":[],"categories_segments":[],"categories_sizes":[],"default_left":[0,0,0,0,0,0,0,0,0],"id":51,"left_children":[1,-1,3,5,-1,7,-1,-1,-1],"loss_changes":[2.73733E0,0E0,3.3433218E0,1.1206038E0,0E0,3.0201337E0,0E0,0E0,0E0],"parents":[2147483647,0,0,2,2,3,3,5,5],"right_children":[2,-1,4,6,-1,8,-1,-1,-1],"split_conditions":[-4.4903655E-2,-1.443241E-1,8.6894715E-1,5.3730255E-1,-1.3898839E-1,7.372658E-1,1.3819495E-1,-1.3145238E-1,1.353009E-1],"split_indices":[6,0,6,5,0,4,0,0,0],"split_type":[0,0,0,0,0,0,0,0,0],"sum_hessian":[5.288952E1,2.06441E1,3.224542E1,2.1875944E1,1.0369474E1,1.3281402E1,8.5945425E0,6.570157E0,6.7112446E0],"tree_param":{"num_deleted":"0","num_feature":"10","num_nodes":"9","size_leaf_vector":"1"}},{"base_weights":[-2.3123561E-1,-4.7864318E-2,-1.421981E-1,3.3528253E-1,-1.3914645E-1,1.3987759E-1,-9.653687E-2],"categories":[],"categories_nodes":[],"categories_segments":[],"categories_sizes":[],"default_left":[0,0,0,0,0,0,0],"id":52,"left_children":[1,3,-1,5,-1,-1,-1],"loss_changes":[1.7690566E0,3.9871938E0,0E0,1.2770145E0,0E0,0E0,0E0],"parents":[2147483647,0,0,1,1,3,3],"right_children":[2,4,-1,6,-1,-1,-1],"split_conditions":[-2.2212443E-1,4.004619E-2,-1.421981E-1,-4.4903655E-2,-1.3914645E-1,1.3987759E-1,-9.653687E-2],"split_indices":[5,4,0,6,0,0,0],"split_type":[0,0,0,0,0,0,0],"sum_hessian":[3.9250477E1,2.304228E1,1.6208197E1,1.2095141E1,1.0947139E1,1.0327025E1,1.7681161E0],"tree_param":{"num_deleted":"0","num_feature":"10","num_nodes":"7","size_leaf_vector":"1"}},{"base_weights":[2.642797E-1,3.525137E-1,-3.4660017E-1,1.8534422E-1,4.2419967E-1,-1.3020737E-1,-5.4157674E-2,-1.6536559E-1,2.7920914E-1,1.4832465E-1,1.7295814E-1,7.144408E-2,-8.61551E-2,-1.119506E-1,8.322309E-2,3.3994347E-1,1.1027914E-1,3.6899656E-1,-1.07861914E-1,9.953913E-2,1.311626E-1,1.0160716E-1,-8.5534625E-2,1.3267785E-1,-1.9296769E-2,-8.912241E-2,1.07915E-1,-9.3336016E-2,5.8202587E-2],"categories":[],"categories_nodes":[],"categories_segments":[],"categories_sizes":[],"default_left":[0,0,0,0,0,0,0,0,0,0,0,0,0,0,0,0,0,0,0,0,0,0,0,0,0,0,0,0,0],"id":53,"left_children":[1,3,5,7,9,-1,11,13,15,-1,17,-1,-1,-1,-1,19,21,23,-1,25,-1,-1,27,-1,-1,-1,-1,-1,-1],"loss_changes":[4.012213E0,6.830368E-1,2.2226048E-1,7.325789E-1,6.8552446E-1,0E0,2.9690966E-1,5.663719E-1,1.3508952E-1,0E0,1.2898228E0,0E0,0E0,0E0,0E0,2.345593E-1,2.9412353E-1,3.0132604E-1,0E0,5.9395623E-1,0E0,0E0,3.1199428E-1,0E0,0E0,0E0,0E0,0E0,0E0],"parents":[2147483647,0,0,1,1,2,2,3,3,4,4,6,6,7,7,8,8,10,10,15,15,16,16,17,17,19,19,22,22],"right_children":[2,4,6,8,10,-1,12,14,16,-1,18,-1,-1,-1,-1,20,22,24,-1,26,-1,-1,28,-1,-1,-1,-1,-1,-1],"split_conditions":[8.855626E-1,-2.2212443E-1,1.7994133E0,-5.874515E-1,-4.4903655E-2,-1.3020737E-1,1.8326443E0,-4.4903655E-2,7.372658E-1,1.4832465E-1,5.3730255E-1,7.144408E-2,-8.61551E-2,-1.119506E-1,8.322309E-2,-1.1136553E-1,-4.4903655E-2,3.8865602E-1,-1.07861914E-1,4.004619E-2,1.311626E-1,1.0160716E-1,8.5233164E-1,1.3267785E-1,-1.9296769E-2,-8.912241E-2,1.07915E-1,-9.3336016E-2,5.8202587E-2],"split_indices":[6,5,6,4,6,0,6,6,4,0,5,0,0,0,0,6,6,4,0,4,0,0,6,0,0,0,0,0,0],"split_type":[0,0,0,0,0,0,0,0,0,0,0,0,0,0,0,0,0,0,0,0,0,0,0,0,0,0,0,0,0],"sum_hessian":[7.1170784E1,6.2558E1,8.612783E0,1.9851177E1,4.270682E1,6.257881E0,2.3549025E0,4.0304327E0,1.5820744E1,3.2621914E1,1.0084908E1,1.0348389E0,1.3200635E0,2.8500547E0,1.180378E0,1.0892353E1,4.928391E0,7.595631E0,2.4892766E0,3.7203565E0,7.1719966E0,1.9380511E0,2.9903398E0,6.4794874E0,1.1161438E0,1.4175826E0,2.3027737E0,1.5923715E0,1.3979683E0],"tree_param":{"num_deleted":"0","num_feature":"10","num_nodes":"29","size_leaf_vector":"1"}},{"base_weights":[-3.0866988E-2,-1.4529628E-1,4.5234904E-1,1.4511852E-1,2.5438213E-1,-4.928259E-2,1.1798817E-1],"categories":[],"categories_nodes":[],"categories_segments":[],"categories_sizes":[],"default_left":[0,0,0,0,0,0,0],"id":54,"left_children":[1,-1,3,-1,5,-1,-1],"loss_changes":[1.0685227E1,0E0,2.3806572E-2,0E0,3.7538043E-1,0E0,0E0],"parents":[2147483647,0,0,2,2,4,4],"right_children":[2,-1,4,-1,6,-1,-1],"split_conditions":[8.855626E-1,-1.4529628E-1,1.7994133E0,1.4511852E-1,1.8326443E0,-4.928259E-2,1.1798817E-1],"split_indices":[6,0,6,0,6,0,0],"split_type":[0,0,0,0,0,0,0],"sum_hessian":[4.676528E1,2.4124432E1,2.2640852E1,1.8297127E1,4.3437247E0,1.0366979E0,3.3070266E0],"tree_param":{"num_deleted":"0","num_feature":"10","num_nodes":"7","size_leaf_vector":"1"}},{"base_weights":[-1.9917561E-1,-1.4188415E-1,-1.7272007E-2,1.9825442E-1,-1.3511239E-1,1.737453E-2,1.3316846E-1,-1.2630798E-1,1.3012978E-1],"categories":[],"categories_nodes":[],"categories_segments":[],"categories_sizes":[],"default_left":[0,0,0,0,0,0,0,0,0],"id":55,"left_children":[1,-1,3,5,-1,7,-1,-1,-1],"loss_changes":[2.0649896E0,0E0,2.5208511E0,7.9595864E-1,0E0,2.2742212E0,0E0,0E0,0E0],"parents":[2147483647,0,0,2,2,3,3,5,5],"right_children":[2,-1,4,6,-1,8,-1,-1,-1],"split_conditions":[-4.4903655E-2,-1.4188415E-1,8.6894715E-1,5.3730255E-1,-1.3511239E-1,7.372658E-1,1.3316846E-1,-1.2630798E-1,1.3012978E-1],"split_indices":[6,0,6,5,0,4,0,0,0],"split_type":[0,0,0,0,0,0,0,0,0],"sum_hessian":[4.062966E1,1.5580483E1,2.504918E1,1.7087908E1,7.9612713E0,1.0457874E1,6.630034E0,5.088877E0,5.3689976E0],"tree_param":{"num_deleted":"0","num_feature":"10","num_nodes":"9","size_leaf_vector":"1"}},{"base_weights":[-2.2738397E-1,-4.355855E-2,-1.4003713E-1,3.224505E-1,-1.3453308E-1,1.3569394E-1,-8.866035E-2],"categories":[],"categories_nodes":[],"categories_segments":[],"categories_sizes":[],"default_left":[0,0,0,0,0,0,0],"id":56,"left_children":[1,3,-1,5,-1,-1,-1],"loss_changes":[1.3518256E0,2.9216723E0,0E0,9.702414E-1,0E0,0E0,0E0],"parents":[2147483647,0,0,1,1,3,3],"right_children":[2,4,-1,6,-1,-1,-1],"split_conditions":[-4.4903655E-2,-2.2212443E-1,-1.4003713E-1,4.004619E-2,-1.3453308E-1,1.3569394E-1,-8.866035E-2],"split_indices":[6,5,0,4,0,0,0],"split_type":[0,0,0,0,0,0,0],"sum_hessian":[3.0179045E1,1.7739738E1,1.2439305E1,9.4241085E0,8.315631E0,8.009158E0,1.4149507E0],"tree_param":{"num_deleted":"0","num_feature":"10","num_nodes":"7","size_leaf_vector":"1"}},{"base_weights":[2.5590366E-1,3.4239256E-1,-3.237847E-1,1.7833735E-1,4.1472688E-1,-1.24699175E-1,-4.18996E-2,-7.778571E-2,2.4174747E-1,1.4620416E-1,1.6034637E-1,-4.8849724E-2,2.943904E-2,1.0338503E-1,3.0252543E-1,3.47737E-1,-1.0010285E-1,-1.0040356E-1,1.1647854E-1,1.2707455E-1,1.0308531E-1,1.2559175E-1,5.6323344E-3,9.27812E-2,-2.1337721E-2],"categories":[],"categories_nodes":[],"categories_segments":[],"categories_sizes":[],"default_left":[0,0,0,0,0,0,0,0,0,0,0,0,0,0,0,0,0,0,0,0,0,0,0,0,0],"id":57,"left_children":[1,3,5,7,9,-1,11,-1,13,-1,15,-1,-1,17,19,21,-1,-1,-1,-1,23,-1,-1,-1,-1],"loss_changes":[2.930745E0,5.1259184E-1,1.8501467E-1,5.3107464E-1,5.416074E-1,0E0,6.7347825E-2,0E0,9.705466E-2,0E0,9.4373316E-1,0E0,0E0,9.007564E-1,1.9979328E-1,1.5475112E-1,0E0,0E0,0E0,0E0,2.0628154E-1,0E0,0E0,0E0,0E0],"parents":[2147483647,0,0,1,1,2,2,3,3,4,4,6,6,8,8,10,10,13,13,14,14,15,15,20,20],"right_children":[2,4,6,8,10,-1,12,-1,14,-1,16,-1,-1,18,20,22,-1,-1,-1,-1,24,-1,-1,-1,-1],"split_conditions":[8.855626E-1,-2.2212443E-1,1.7994133E0,-9.4213897E-1,-4.4903655E-2,-1.24699175E-1,1.0161537E0,-7.778571E-2,4.004619E-2,1.4620416E-1,5.3730255E-1,-4.8849724E-2,2.943904E-2,-4.4903655E-2,7.372658E-1,3.1893405E-1,-1.0010285E-1,-1.0040356E-1,1.1647854E-1,1.2707455E-1,-4.4903655E-2,1.2559175E-1,5.6323344E-3,9.27812E-2,-2.1337721E-2],"split_indices":[6,5,6,6,6,0,4,0,4,0,5,0,0,6,4,4,0,0,0,0,6,0,0,0,0],"split_type":[0,0,0,0,0,0,0,0,0,0,0,0,0,0,0,0,0,0,0,0,0,0,0,0,0],"sum_hessian":[5.5243996E1,4.8427948E1,6.8160486E0,1.5879192E1,3.2548756E1,4.782596E0,2.0334525E0,1.6187071E0,1.4260485E1,2.46079E1,7.9408565E0,1.0037498E0,1.0297025E0,5.1766815E0,9.083804E0,5.971777E0,1.9690795E0,1.9709988E0,3.2056825E0,4.9533563E0,4.1304474E0,4.6886215E0,1.2831554E0,1.5365813E0,2.593866E0],"tree_param":{"num_deleted":"0","num_feature":"10","num_nodes":"25","size_leaf_vector":"1"}},{"base_weights":[-2.9573085E-2,-1.4327677E-1,4.3884277E-1,1.421315E-1,2.302788E-1,-2.403946E-2,1.083231E-1],"categories":[],"categories_nodes":[],"categories_segments":[],"categories_sizes":[],"default_left":[0,0,0,0,0,0,0],"id":58,"left_children":[1,-1,3,-1,5,-1,-1],"loss_changes":[7.9620433E0,0E0,2.6259184E-2,0E0,2.1615045E-1,0E0,0E0],"parents":[2147483647,0,0,2,2,4,4],"right_children":[2,-1,4,-1,6,-1,-1],"split_conditions":[8.855626E-1,-1.4327677E-1,1.7994133E0,1.421315E-1,5.8022606E-1,-2.403946E-2,1.083231E-1],"split_indices":[6,0,6,0,1,0,0],"split_type":[0,0,0,0,0,0,0],"sum_hessian":[3.5941467E1,1.8360752E1,1.7580715E1,1.396959E1,3.6111257E0,1.18537E0,2.4257557E0],"tree_param":{"num_deleted":"0","num_feature":"10","num_nodes":"7","size_leaf_vector":"1"}},{"base_weights":[-1.9152048E-1,-1.3897152E-1,-1.3676091E-2,1.9553891E-1,-1.3061598E-1,2.314316E-2,1.276831E-1,-1.2065526E-1,1.2482461E-1],"categories":[],"categories_nodes":[],"categories_segments":[],"categories_sizes":[],"default_left":[0,0,0,0,0,0,0,0,0],"id":59,"left_children":[1,-1,3,5,-1,7,-1,-1,-1],"loss_changes":[1.5607713E0,0E0,1.9053683E0,5.64468E-1,0E0,1.7274666E0,0E0,0E0,0E0],"parents":[2147483647,0,0,2,2,3,3,5,5],"right_children":[2,-1,4,6,-1,8,-1,-1,-1],"split_conditions":[-4.4903655E-2,-1.3897152E-1,8.6894715E-1,5.3730255E-1,-1.3061598E-1,7.372658E-1,1.276831E-1,-1.2065526E-1,1.2482461E-1],"split_indices":[6,0,6,5,0,4,0,0,0],"split_type":[0,0,0,0,0,0,0,0,0],"sum_hessian":[3.142949E1,1.1798508E1,1.9630981E1,1.347982E1,6.1511607E0,8.334931E0,5.1448894E0,3.991211E0,4.34372E0],"tree_param":{"num_deleted":"0","num_feature":"10","num_nodes":"9","size_leaf_vector":"1"}},{"base_weights":[-2.2336376E-1,-3.9815743E-2,-1.36962E-1,3.0599028E-1,-1.2994355E-1,1.3108888E-1,-8.159971E-2],"categories":[],"categories_nodes":[],"categories_segments":[],"categories_sizes":[],"default_left":[0,0,0,0,0,0,0],"id":60,"left_children":[1,3,-1,5,-1,-1,-1],"loss_changes":[1.025365E0,2.137219E0,0E0,7.569454E-1,0E0,0E0,0E0],"parents":[2147483647,0,0,1,1,3,3],"right_children":[2,4,-1,6,-1,-1,-1],"split_conditions":[-4.4903655E-2,-2.2212443E-1,-1.36962E-1,4.004619E-2,-1.2994355E-1,1.3108888E-1,-8.159971E-2],"split_indices":[6,5,0,4,0,0,0],"split_type":[0,0,0,0,0,0,0],"sum_hessian":[2.3382381E1,1.3738601E1,9.643782E0,7.429132E0,6.3094687E0,6.255604E0,1.1735281E0],"tree_param":{"num_deleted":"0","num_feature":"10","num_nodes":"7","size_leaf_vector":"1"}},{"base_weights":[2.4592307E-1,3.3095202E-1,-2.9515836E-1,1.6994488E-1,4.0410152E-1,-1.1841666E-1,-9.219587E-3,-1.298385E-1,2.5935045E-1,1.438912E-1,1.473373E-1,-9.782628E-2,6.422173E-2,3.2400638E-1,9.78385E-2,3.2467866E-1,-9.22232E-2,1.10485494E-1,1.21859424E-1,8.4793314E-2,-5.6544166E-2,1.19122826E-1,4.4469815E-3,-5.1196102E-2,8.9427374E-2,-7.980339E-2,5.0755545E-2],"categories":[],"categories_nodes":[],"categories_segments":[],"categories_sizes":[],"default_left":[0,0,0,0,0,0,0,0,0,0,0,0,0,0,0,0,0,0,0,0,0,0,0,0,0,0,0],"id":61,"left_children":[1,3,5,7,9,-1,-1,11,13,-1,15,-1,-1,17,19,21,-1,23,-1,-1,25,-1,-1,-1,-1,-1,-1],"loss_changes":[2.1405365E0,3.8881254E-1,1.6054165E-1,4.051649E-1,4.3327713E-1,0E0,0E0,3.2968122E-1,8.327371E-2,0E0,6.9253343E-1,0E0,0E0,8.5513115E-2,1.4665532E-1,1.23640716E-1,0E0,2.3224011E-1,0E0,0E0,2.0239745E-1,0E0,0E0,0E0,0E0,0E0,0E0],"parents":[2147483647,0,0,1,1,2,2,3,3,4,4,7,7,8,8,10,10,13,13,14,14,15,15,17,17,20,20],"right_children":[2,4,6,8,10,-1,-1,12,14,-1,16,-1,-1,18,20,22,-1,24,-1,-1,26,-1,-1,-1,-1,-1,-1],"split_conditions":[8.855626E-1,-2.2212443E-1,1.7994133E0,-5.177295E-1,-4.4903655E-2,-1.1841666E-1,-9.219587E-3,-1.1136553E-1,7.372658E-1,1.438912E-1,5.3730255E-1,-9.782628E-2,6.422173E-2,4.004619E-2,-4.4903655E-2,3.1893405E-1,-9.22232E-2,4.942753E-3,1.21859424E-1,8.4793314E-2,8.5233164E-1,1.19122826E-1,4.4469815E-3,-5.1196102E-2,8.9427374E-2,-7.980339E-2,5.0755545E-2],"split_indices":[6,5,6,4,6,0,0,6,4,0,5,0,0,4,6,4,0,6,0,0,6,0,0,0,0,0,0],"split_type":[0,0,0,0,0,0,0,0,0,0,0,0,0,0,0,0,0,0,0,0,0,0,0,0,0,0,0],"sum_hessian":[4.3402527E1,3.7843857E1,5.558672E0,1.2860422E1,2.4983435E1,3.6802192E0,1.8784528E0,2.8504417E0,1.000998E1,1.8633701E1,6.349733E0,1.8478254E0,1.0026164E0,6.4299006E0,3.5800793E0,4.7740045E0,1.5757283E0,2.4387243E0,3.9911764E0,1.2513409E0,2.3287385E0,3.6416488E0,1.1323557E0,1.0122153E0,1.426509E0,1.1153183E0,1.2134202E0],"tree_param":{"num_deleted":"0","num_feature":"10","num_nodes":"27","size_leaf_vector":"1"}},{"base_weights":[-2.82152E-2,-1.409126E-1,4.2147976E-1,1.3878456E-1,2.0358117E-1,-2.7200442E-2,1.02225944E-1],"categories":[],"categories_nodes":[],"categories_segments":[],"categories_sizes":[],"default_left":[0,0,0,0,0,0,0],"id":62,"left_children":[1,-1,3,-1,5,-1,-1],"loss_changes":[5.935865E0,0E0,3.8876534E-2,0E0,1.9812945E-1,0E0,0E0],"parents":[2147483647,0,0,2,2,4,4],"right_children":[2,-1,4,-1,6,-1,-1],"split_conditions":[8.855626E-1,-1.409126E-1,1.7994133E0,1.3878456E-1,1.8492597E0,-2.7200442E-2,1.02225944E-1],"split_indices":[6,0,6,0,6,0,0],"split_type":[0,0,0,0,0,0,0],"sum_hessian":[2.7900816E1,1.4056335E1,1.3844481E1,1.0701207E1,3.1432745E0,1.1072079E0,2.0360668E0],"tree_param":{"num_deleted":"0","num_feature":"10","num_nodes":"7","size_leaf_vector":"1"}},{"base_weights":[-1.82146E-1,-1.3547087E-1,-9.397556E-3,1.9350185E-1,-1.2568969E-1,3.1349204E-2,1.21690445E-1,-1.1453467E-1,1.1967711E-1],"categories":[],"categories_nodes":[],"categories_segments":[],"categories_sizes":[],"default_left":[0,0,0,0,0,0,0,0,0],"id":63,"left_children":[1,-1,3,5,-1,7,-1,-1,-1],"loss_changes":[1.1859847E0,0E0,1.4608247E0,3.927319E-1,0E0,1.3313538E0,0E0,0E0,0E0],"parents":[2147483647,0,0,2,2,3,3,5,5],"right_children":[2,-1,4,6,-1,8,-1,-1,-1],"split_conditions":[-4.4903655E-2,-1.3547087E-1,8.6894715E-1,5.3730255E-1,-1.2568969E-1,7.372658E-1,1.21690445E-1,-1.1453467E-1,1.1967711E-1],"split_indices":[6,0,6,5,0,4,0,0,0],"split_type":[0,0,0,0,0,0,0,0,0],"sum_hessian":[2.4572939E1,8.969623E0,1.5603316E1,1.0787E1,4.816317E0,6.7642465E0,4.022753E0,3.1665661E0,3.5976806E0],"tree_param":{"num_deleted":"0","num_feature":"10","num_nodes":"9","size_leaf_vector":"1"}},{"base_weights":[-2.1845266E-1,-3.503999E-2,-1.3335502E-1,2.8965712E-1,-1.2454285E-1,1.252827E-1,-5.6269933E-2],"categories":[],"categories_nodes":[],"categories_segments":[],"categories_sizes":[],"default_left":[0,0,0,0,0,0,0],"id":64,"left_children":[1,3,-1,5,-1,-1,-1],"loss_changes":[7.838131E-1,1.5678766E0,0E0,5.005573E-1,0E0,0E0,0E0],"parents":[2147483647,0,0,1,1,3,3],"right_children":[2,4,-1,6,-1,-1,-1],"split_conditions":[-4.4903655E-2,-2.2212443E-1,-1.3335502E-1,-2.9675778E-2,-1.2454285E-1,1.252827E-1,-5.6269933E-2],"split_indices":[6,5,0,4,0,0,0],"split_type":[0,0,0,0,0,0,0],"sum_hessian":[1.8279564E1,1.0729442E1,7.5501227E0,5.91478E0,4.814661E0,4.7627296E0,1.1520507E0],"tree_param":{"num_deleted":"0","num_feature":"10","num_nodes":"7","size_leaf_vector":"1"}},{"base_weights":[2.3543982E-1,3.1903985E-1,-2.6462916E-1,1.6259818E-1,3.9226422E-1,-1.11437984E-1,-6.138787E-3,-4.650643E-2,2.3459291E-1,1.4124946E-1,1.3402636E-1,2.8596634E-1,9.197782E-2,3.0127957E-1,-8.446418E-2,5.567151E-2,1.175224E-1,7.719797E-2,-1.4615478E-2,1.1212947E-1,3.4330157E-3,-6.3363925E-2,8.376737E-2],"categories":[],"categories_nodes":[],"categories_segments":[],"categories_sizes":[],"default_left":[0,0,0,0,0,0,0,0,0,0,0,0,0,0,0,0,0,0,0,0,0,0,0],"id":65,"left_children":[1,3,5,7,9,-1,-1,-1,11,-1,13,15,17,19,-1,21,-1,-1,-1,-1,-1,-1,-1],"loss_changes":[1.5671643E0,2.895081E-1,1.3916746E-1,3.0027157E-1,3.4875846E-1,0E0,0E0,0E0,4.554373E-2,0E0,5.1112556E-1,1.4225441E-1,1.0724587E-1,9.774831E-2,0E0,2.5499633E-1,0E0,0E0,0E0,0E0,0E0,0E0,0E0],"parents":[2147483647,0,0,1,1,2,2,3,3,4,4,8,8,10,10,11,11,12,12,13,13,15,15],"right_children":[2,4,6,8,10,-1,-1,-1,12,-1,14,16,18,20,-1,22,-1,-1,-1,-1,-1,-1,-1],"split_conditions":[8.855626E-1,-2.2212443E-1,1.7994133E0,-6.5717345E-1,-4.4903655E-2,-1.11437984E-1,-6.138787E-3,-4.650643E-2,7.372658E-1,1.4124946E-1,5.3730255E-1,-4.4903655E-2,-4.4903655E-2,3.1893405E-1,-8.446418E-2,1.0976815E-1,1.175224E-1,7.719797E-2,-1.4615478E-2,1.1212947E-1,3.4330157E-3,-6.3363925E-2,8.376737E-2],"split_indices":[6,5,6,4,6,0,0,0,4,0,5,6,6,4,0,4,0,0,0,0,0,0,0],"split_type":[0,0,0,0,0,0,0,0,0,0,0,0,0,0,0,0,0,0,0,0,0,0,0],"sum_hessian":[3.446727E1,2.9840612E1,4.6266565E0,1.054088E1,1.9299734E1,2.855809E0,1.7708473E0,1.734693E0,8.806187E0,1.4166434E1,5.133299E0,5.735102E0,3.0710847E0,3.8563044E0,1.2769943E0,2.2854683E0,3.4496338E0,1.0307612E0,2.0403235E0,2.853178E0,1.0031263E0,1.0669315E0,1.2185369E0],"tree_param":{"num_deleted":"0","num_feature":"10","num_nodes":"23","size_leaf_vector":"1"}},{"base_weights":[-2.6707815E-2,-1.3805543E-1,4.0153927E-1,1.3498217E-1,1.7754878E-1,-2.7974406E-2,9.59552E-2],"categories":[],"categories_nodes":[],"categories_segments":[],"categories_sizes":[],"default_left":[0,0,0,0,0,0,0],"id":66,"left_children":[1,-1,3,-1,5,-1,-1],"loss_changes":[4.4311633E0,0E0,5.0653934E-2,0E0,1.7592494E-1,0E0,0E0],"parents":[2147483647,0,0,2,2,4,4],"right_children":[2,-1,4,-1,6,-1,-1],"split_conditions":[8.855626E-1,-1.3805543E-1,1.7994133E0,1.3498217E-1,1.8492597E0,-2.7974406E-2,9.59552E-2],"split_indices":[6,0,6,0,6,0,0],"split_type":[0,0,0,0,0,0,0],"sum_hessian":[2.1874865E1,1.083399E1,1.1040875E1,8.249519E0,2.7913558E0,1.0802965E0,1.7110593E0],"tree_param":{"num_deleted":"0","num_feature":"10","num_nodes":"7","size_leaf_vector":"1"}},{"base_weights":[-1.7321654E-1,-1.3128062E-1,-6.7854635E-3,1.8785727E-1,-1.2000973E-1,3.1286743E-2,1.1605678E-1,-1.0839753E-1,1.1324374E-1],"categories":[],"categories_nodes":[],"categories_segments":[],"categories_sizes":[],"default_left":[0,0,0,0,0,0,0,0,0],"id":67,"left_children":[1,-1,3,5,-1,7,-1,-1,-1],"loss_changes":[8.932005E-1,0E0,1.109578E0,2.9075873E-1,0E0,1.0236926E0,0E0,0E0,0E0],"parents":[2147483647,0,0,2,2,3,3,5,5],"right_children":[2,-1,4,6,-1,8,-1,-1,-1],"split_conditions":[-4.4903655E-2,-1.3128062E-1,8.6894715E-1,7.372658E-1,-1.2000973E-1,5.3730255E-1,1.1605678E-1,-1.0839753E-1,1.1324374E-1],"split_indices":[6,0,6,4,0,5,0,0,0],"split_type":[0,0,0,0,0,0,0,0,0],"sum_hessian":[1.936659E1,6.852177E0,1.2514413E1,8.720419E0,3.793994E0,5.5281415E0,3.192277E0,2.56992E0,2.9582217E0],"tree_param":{"num_deleted":"0","num_feature":"10","num_nodes":"9","size_leaf_vector":"1"}},{"base_weights":[-2.1084698E-1,-2.835144E-2,-1.2928529E-1,2.7023906E-1,-1.1833556E-1,1.1994301E-1,-5.1352873E-2],"categories":[],"categories_nodes":[],"categories_segments":[],"categories_sizes":[],"default_left":[0,0,0,0,0,0,0],"id":68,"left_children":[1,3,-1,5,-1,-1,-1],"loss_changes":[6.114181E-1,1.1514672E0,0E0,4.0348712E-1,0E0,0E0,0E0],"parents":[2147483647,0,0,1,1,3,3],"right_children":[2,4,-1,6,-1,-1,-1],"split_conditions":[-4.4903655E-2,-2.2212443E-1,-1.2928529E-1,-2.9675778E-2,-1.1833556E-1,1.1994301E-1,-5.1352873E-2],"split_indices":[6,5,0,4,0,0,0],"split_type":[0,0,0,0,0,0,0],"sum_hessian":[1.4525696E1,8.558428E0,5.9672685E0,4.8580556E0,3.7003725E0,3.8285077E0,1.0295477E0],"tree_param":{"num_deleted":"0","num_feature":"10","num_nodes":"7","size_leaf_vector":"1"}},{"base_weights":[2.2309944E-1,3.0461872E-1,-2.3500891E-1,1.5283263E-1,3.7899938E-1,-1.0392445E-1,-3.77638E-3,-3.230294E-2,2.314194E-1,1.3817059E-1,1.2057399E-1,2.895335E-1,8.7821335E-2,2.7810732E-1,-7.710714E-2,2.4262328E-2,1.088549E-1,5.5135537E-2,-4.721621E-3,1.02519244E-1,1.3466962E-2],"categories":[],"categories_nodes":[],"categories_segments":[],"categories_sizes":[],"default_left":[0,0,0,0,0,0,0,0,0,0,0,0,0,0,0,0,0,0,0,0,0],"id":69,"left_children":[1,3,5,7,9,-1,-1,-1,11,-1,13,15,17,19,-1,-1,-1,-1,-1,-1,-1],"loss_changes":[1.1474434E0,2.2310925E-1,1.1746597E-1,2.2682323E-1,2.823739E-1,0E0,0E0,0E0,4.0449947E-2,0E0,3.8082573E-1,4.9966544E-2,3.975974E-2,4.6235472E-2,0E0,0E0,0E0,0E0,0E0,0E0,0E0],"parents":[2147483647,0,0,1,1,2,2,3,3,4,4,8,8,10,10,11,11,12,12,13,13],"right_children":[2,4,6,8,10,-1,-1,-1,12,-1,14,16,18,20,-1,-1,-1,-1,-1,-1,-1],"split_conditions":[8.855626E-1,-2.2212443E-1,1.7994133E0,-5.177295E-1,-4.4903655E-2,-1.0392445E-1,-3.77638E-3,-3.230294E-2,7.372658E-1,1.3817059E-1,5.3730255E-1,4.004619E-2,6.717153E-2,1.7949012E-1,-7.710714E-2,2.4262328E-2,1.088549E-1,5.5135537E-2,-4.721621E-3,1.02519244E-1,1.3466962E-2],"split_indices":[6,5,6,4,6,0,0,0,4,0,5,4,2,4,0,0,0,0,0,0,0],"split_type":[0,0,0,0,0,0,0,0,0,0,0,0,0,0,0,0,0,0,0,0,0],"sum_hessian":[2.7808807E1,2.3892284E1,3.9165232E0,8.862209E0,1.5030075E1,2.238055E0,1.6784681E0,1.9680653E0,6.8941436E0,1.0829613E1,4.200463E0,4.1844296E0,2.7097142E0,3.1498375E0,1.0506254E0,1.6348133E0,2.5496163E0,1.0043569E0,1.7053572E0,2.1091554E0,1.0406821E0],"tree_param":{"num_deleted":"0","num_feature":"10","num_nodes":"21","size_leaf_vector":"1"}},{"base_weights":[-2.5426846E-2,-1.3474567E-1,3.8001153E-1,1.3065812E-1,1.5460669E-1,-3.0194461E-2,9.053457E-2],"categories":[],"categories_nodes":[],"categories_segments":[],"categories_sizes":[],"default_left":[0,0,0,0,0,0,0],"id":70,"left_children":[1,-1,3,-1,5,-1,-1],"loss_changes":[3.3238726E0,0E0,5.6814313E-2,0E0,1.6227245E-1,0E0,0E0],"parents":[2147483647,0,0,2,2,4,4],"right_children":[2,-1,4,-1,6,-1,-1],"split_conditions":[8.855626E-1,-1.3474567E-1,1.7994133E0,1.3065812E-1,5.8022606E-1,-3.0194461E-2,9.053457E-2],"split_indices":[6,0,6,0,1,0,0],"split_type":[0,0,0,0,0,0,0],"sum_hessian":[1.7354422E1,8.433117E0,8.921305E0,6.410299E0,2.5110064E0,1.0339309E0,1.4770756E0],"tree_param":{"num_deleted":"0","num_feature":"10","num_nodes":"7","size_leaf_vector":"1"}},{"base_weights":[-1.6312802E-1,-1.264439E-1,-3.1714558E-3,1.8374364E-1,-1.1402756E-1,2.5206102E-2,1.1075031E-1,-1.0195905E-1,1.0627008E-1],"categories":[],"categories_nodes":[],"categories_segments":[],"categories_sizes":[],"default_left":[0,0,0,0,0,0,0,0,0],"id":71,"left_children":[1,-1,3,5,-1,7,-1,-1,-1],"loss_changes":[6.793554E-1,0E0,8.575404E-1,2.302281E-1,0E0,7.7694434E-1,0E0,0E0,0E0],"parents":[2147483647,0,0,2,2,3,3,5,5],"right_children":[2,-1,4,6,-1,8,-1,-1,-1],"split_conditions":[-4.4903655E-2,-1.264439E-1,8.6894715E-1,7.372658E-1,-1.1402756E-1,5.3730255E-1,1.1075031E-1,-1.0195905E-1,1.0627008E-1],"split_indices":[6,0,6,4,0,5,0,0,0],"split_type":[0,0,0,0,0,0,0,0,0],"sum_hessian":[1.5471664E1,5.291006E0,1.0180658E1,7.1483164E0,3.032342E0,4.4659057E0,2.6824112E0,2.1013916E0,2.3645139E0],"tree_param":{"num_deleted":"0","num_feature":"10","num_nodes":"9","size_leaf_vector":"1"}},{"base_weights":[-2.0012707E-1,-1.7271584E-2,-1.2488581E-1,2.5555262E-1,-1.11407354E-1,1.135364E-1,-3.2823678E-2],"categories":[],"categories_nodes":[],"categories_segments":[],"categories_sizes":[],"default_left":[0,0,0,0,0,0,0],"id":72,"left_children":[1,3,-1,5,-1,-1,-1],"loss_changes":[4.9694455E-1,8.631718E-1,0E0,2.694597E-1,0E0,0E0,0E0],"parents":[2147483647,0,0,1,1,3,3],"right_children":[2,4,-1,6,-1,-1,-1],"split_conditions":[-4.4903655E-2,-2.2212443E-1,-1.2488581E-1,-9.939774E-2,-1.11407354E-1,1.135364E-1,-3.2823678E-2],"split_indices":[6,5,0,4,0,0,0],"split_type":[0,0,0,0,0,0,0],"sum_hessian":[1.1754554E1,6.952838E0,4.8017163E0,4.084216E0,2.8686216E0,3.0276816E0,1.0565345E0],"tree_param":{"num_deleted":"0","num_feature":"10","num_nodes":"7","size_leaf_vector":"1"}},{"base_weights":[2.0898038E-1,2.8747502E-1,-2.0729227E-1,3.282463E-1,5.118341E-2,-8.967002E-2,8.628673E-3,1.5086184E-1,3.9294785E-1,7.810194E-2,-1.03040926E-1,-1.07834294E-1,1.0965529E-1,1.3399716E-1,1.7601475E-1,3.5414487E-2,-7.970992E-2,-9.2156745E-2,5.961172E-2,9.722691E-2,-2.6545506E-2],"categories":[],"categories_nodes":[],"categories_segments":[],"categories_sizes":[],"default_left":[0,0,0,0,0,0,0,0,0,0,0,0,0,0,0,0,0,0,0,0,0],"id":73,"left_children":[1,3,5,7,9,-1,-1,11,13,-1,15,17,-1,-1,19,-1,-1,-1,-1,-1,-1],"loss_changes":[8.3994365E-1,1.80812E-1,1.0309407E-1,1.3937533E-1,1.6240881E-1,0E0,0E0,3.8644248E-1,6.1893463E-2,0E0,1.4413336E-1,2.8141117E-1,0E0,0E0,1.8704863E-1,0E0,0E0,0E0,0E0,0E0,0E0],"parents":[2147483647,0,0,1,1,2,2,3,3,4,4,7,7,8,8,10,10,11,11,14,14],"right_children":[2,4,6,8,10,-1,-1,12,14,-1,16,18,-1,-1,20,-1,-1,-1,-1,-1,-1],"split_conditions":[8.855626E-1,7.372658E-1,-6.967663E-1,-2.2212443E-1,-4.4903655E-2,-8.967002E-2,8.628673E-3,-4.4903655E-2,-4.4903655E-2,7.810194E-2,-4.3755794E-1,-2.9675778E-2,1.0965529E-1,1.3399716E-1,4.423742E-1,3.5414487E-2,-7.970992E-2,-9.2156745E-2,5.961172E-2,9.722691E-2,-2.6545506E-2],"split_indices":[6,4,5,5,6,0,0,6,6,0,8,4,0,0,5,0,0,0,0,0,0],"split_type":[0,0,0,0,0,0,0,0,0,0,0,0,0,0,0,0,0,0,0,0,0],"sum_hessian":[2.2882126E1,1.9512207E1,3.3699203E0,1.630899E1,3.2032156E0,2.2359588E0,1.1339614E0,5.2492943E0,1.1059696E1,1.0674708E0,2.1357448E0,2.606122E0,2.6431725E0,8.016076E0,3.04362E0,1.0215249E0,1.1142199E0,1.5778606E0,1.0282614E0,1.8068168E0,1.2368033E0],"tree_param":{"num_deleted":"0","num_feature":"10","num_nodes":"21","size_leaf_vector":"1"}},{"base_weights":[-2.4672506E-2,-1.3096529E-1,3.5735592E-1,1.2579411E-1,1.3470131E-1,-3.0298945E-2,8.496124E-2],"categories":[],"categories_nodes":[],"categories_segments":[],"categories_sizes":[],"default_left":[0,0,0,0,0,0,0],"id":74,"left_children":[1,-1,3,-1,5,-1,-1],"loss_changes":[2.509653E0,0E0,5.8157682E-2,0E0,1.4348999E-1,0E0,0E0],"parents":[2147483647,0,0,2,2,4,4],"right_children":[2,-1,4,-1,6,-1,-1],"split_conditions":[8.855626E-1,-1.3096529E-1,1.7994133E0,1.2579411E-1,1.8492597E0,-3.0298945E-2,8.496124E-2],"split_indices":[6,0,6,0,6,0,0],"split_type":[0,0,0,0,0,0,0],"sum_hessian":[1.3958118E1,6.647978E0,7.31014E0,5.0278115E0,2.2823286E0,1.005825E0,1.2765036E0],"tree_param":{"num_deleted":"0","num_feature":"10","num_nodes":"7","size_leaf_vector":"1"}},{"base_weights":[-1.5262882E-1,-1.208782E-1,-9.648696E-4,1.7590725E-1,-1.07697345E-1,1.4539819E-2,1.0572314E-1,-9.637679E-2,9.914092E-2],"categories":[],"categories_nodes":[],"categories_segments":[],"categories_sizes":[],"default_left":[0,0,0,0,0,0,0,0,0],"id":75,"left_children":[1,-1,3,5,-1,7,-1,-1,-1],"loss_changes":[5.1427454E-1,0E0,6.6122687E-1,1.9404228E-1,0E0,6.043576E-1,0E0,0E0,0E0],"parents":[2147483647,0,0,2,2,3,3,5,5],"right_children":[2,-1,4,6,-1,8,-1,-1,-1],"split_conditions":[-4.4903655E-2,-1.208782E-1,8.6894715E-1,7.372658E-1,-1.07697345E-1,5.3730255E-1,1.0572314E-1,-9.637679E-2,9.914092E-2],"split_indices":[6,0,6,4,0,5,0,0,0],"split_type":[0,0,0,0,0,0,0,0,0],"sum_hessian":[1.2557592E1,4.1129985E0,8.444594E0,5.9927373E0,2.4518569E0,3.696031E0,2.2967062E0,1.7835124E0,1.9125189E0],"tree_param":{"num_deleted":"0","num_feature":"10","num_nodes":"9","size_leaf_vector":"1"}},{"base_weights":[-1.9338952E-1,-1.45095205E-2,-1.1974635E-1,2.3363984E-1,-1.0401415E-1,1.0559304E-1,-2.060913E-2],"categories":[],"categories_nodes":[],"categories_segments":[],"categories_sizes":[],"default_left":[0,0,0,0,0,0,0],"id":76,"left_children":[1,3,-1,5,-1,-1,-1],"loss_changes":[3.8140696E-1,6.304583E-1,0E0,1.8205494E-1,0E0,0E0,0E0],"parents":[2147483647,0,0,1,1,3,3],"right_children":[2,4,-1,6,-1,-1,-1],"split_conditions":[-4.4903655E-2,-2.2212443E-1,-1.1974635E-1,-1.6911972E-1,-1.0401415E-1,1.0559304E-1,-2.060913E-2],"split_indices":[6,5,0,4,0,0,0],"split_type":[0,0,0,0,0,0,0],"sum_hessian":[9.5196295E0,5.665174E0,3.8544557E0,3.412677E0,2.252497E0,2.334679E0,1.0779982E0],"tree_param":{"num_deleted":"0","num_feature":"10","num_nodes":"7","size_leaf_vector":"1"}},{"base_weights":[1.9766876E-1,2.739873E-1,-1.797822E-1,3.144055E-1,4.971263E-2,-8.9466E-2,3.5095857E-3,1.405873E-1,3.7695262E-1,5.8935296E-2,-2.2749025E-2,-9.7631924E-2,1.0246891E-1,1.2971759E-1,1.591331E-1,-8.080068E-2,3.9017837E-2,8.96167E-2,-2.3922794E-2],"categories":[],"categories_nodes":[],"categories_segments":[],"categories_sizes":[],"default_left":[0,0,0,0,0,0,0,0,0,0,0,0,0,0,0,0,0,0,0],"id":77,"left_children":[1,3,5,7,9,-1,-1,11,13,-1,-1,15,-1,-1,17,-1,-1,-1,-1],"loss_changes":[6.2070787E-1,1.3754034E-1,9.28476E-2,1.00616336E-1,8.4310785E-2,0E0,0E0,2.8870463E-1,4.948163E-2,0E0,0E0,1.608544E-1,0E0,0E0,1.4285083E-1,0E0,0E0,0E0,0E0],"parents":[2147483647,0,0,1,1,2,2,3,3,4,4,7,7,8,8,11,11,14,14],"right_children":[2,4,6,8,10,-1,-1,12,14,-1,-1,16,-1,-1,18,-1,-1,-1,-1],"split_conditions":[8.855626E-1,7.372658E-1,1.7994133E0,-2.2212443E-1,1.2125103E-1,-8.9466E-2,3.5095857E-3,-4.4903655E-2,-4.4903655E-2,5.8935296E-2,-2.2749025E-2,-1.6911972E-1,1.0246891E-1,1.2971759E-1,4.423742E-1,-8.080068E-2,3.9017837E-2,8.96167E-2,-2.3922794E-2],"split_indices":[6,4,6,5,6,0,0,6,6,0,0,4,0,0,5,0,0,0,0],"split_type":[0,0,0,0,0,0,0,0,0,0,0,0,0,0,0,0,0,0,0],"sum_hessian":[1.8837526E1,1.5897291E1,2.9402347E0,1.3129288E1,2.7680027E0,1.472191E0,1.4680437E0,4.3336887E0,8.7956E0,1.0158411E0,1.7521617E0,2.2183998E0,2.1152887E0,6.225895E0,2.5697048E0,1.1604208E0,1.057979E0,1.4637909E0,1.1059139E0],"tree_param":{"num_deleted":"0","num_feature":"10","num_nodes":"19","size_leaf_vector":"1"}},{"base_weights":[-2.295475E-2,-1.2652601E-1,3.3300975E-1,1.207249E-1,1.085445E-1,-8.313243E-3,5.6909192E-2],"categories":[],"categories_nodes":[],"categories_segments":[],"categories_sizes":[],"default_left":[0,0,0,0,0,0,0],"id":78,"left_children":[1,-1,3,-1,5,-1,-1],"loss_changes":[1.890913E0,0E0,6.653023E-2,0E0,3.8872823E-2,0E0,0E0],"parents":[2147483647,0,0,2,2,4,4],"right_children":[2,-1,4,-1,6,-1,-1],"split_conditions":[8.855626E-1,-1.2652601E-1,1.7994133E0,1.207249E-1,1.6806808E0,-8.313243E-3,5.6909192E-2],"split_indices":[6,0,6,0,2,0,0],"split_type":[0,0,0,0,0,0,0],"sum_hessian":[1.1330854E1,5.2567396E0,6.074115E0,4.033992E0,2.0401227E0,1.007339E0,1.0327839E0],"tree_param":{"num_deleted":"0","num_feature":"10","num_nodes":"7","size_leaf_vector":"1"}},{"base_weights":[-1.4271468E-1,-1.1480509E-1,2.4520135E-3,1.7187244E-1,-1.0104412E-1,1.5066297E-2,9.958379E-2,-8.970246E-2,9.2736684E-2],"categories":[],"categories_nodes":[],"categories_segments":[],"categories_sizes":[],"default_left":[0,0,0,0,0,0,0,0,0],"id":79,"left_children":[1,-1,3,5,-1,7,-1,-1,-1],"loss_changes":[3.9242834E-1,0E0,5.1748294E-1,1.454755E-1,0E0,4.688651E-1,0E0,0E0,0E0],"parents":[2147483647,0,0,2,2,3,3,5,5],"right_children":[2,-1,4,6,-1,8,-1,-1,-1],"split_conditions":[-4.4903655E-2,-1.1480509E-1,8.6894715E-1,7.372658E-1,-1.0104412E-1,5.3730255E-1,9.958379E-2,-8.970246E-2,9.2736684E-2],"split_indices":[6,0,6,4,0,5,0,0,0],"split_type":[0,0,0,0,0,0,0,0,0],"sum_hessian":[1.0238251E1,3.242328E0,6.9959226E0,4.994966E0,2.0009565E0,3.075936E0,1.91903E0,1.4791976E0,1.5967383E0],"tree_param":{"num_deleted":"0","num_feature":"10","num_nodes":"9","size_leaf_vector":"1"}},{"base_weights":[-1.8466902E-1,-1.0231616E-2,-1.14404425E-1,2.1249606E-1,-9.6338E-2,9.877612E-2,-1.746652E-2],"categories":[],"categories_nodes":[],"categories_segments":[],"categories_sizes":[],"default_left":[0,0,0,0,0,0,0],"id":80,"left_children":[1,3,-1,5,-1,-1,-1],"loss_changes":[3.005721E-1,4.6507004E-1,0E0,1.437271E-1,0E0,0E0,0E0],"parents":[2147483647,0,0,1,1,3,3],"right_children":[2,4,-1,6,-1,-1,-1],"split_conditions":[-4.4903655E-2,-2.2212443E-1,-1.14404425E-1,-1.6911972E-1,-9.6338E-2,9.877612E-2,-1.746652E-2],"split_indices":[6,5,0,4,0,0,0],"split_type":[0,0,0,0,0,0,0],"sum_hessian":[7.8746743E0,4.7308445E0,3.14383E0,2.940645E0,1.7901993E0,1.903473E0,1.037172E0],"tree_param":{"num_deleted":"0","num_feature":"10","num_nodes":"7","size_leaf_vector":"1"}},{"base_weights":[1.8437774E-1,2.5799355E-1,-1.5447453E-1,2.9812372E-1,4.8358545E-2,-8.1751615E-2,4.4702743E-3,1.2748316E-1,3.5985655E-1,4.186702E-2,-1.35834E-2,-2.6951728E-2,9.518835E-2,1.2486414E-1,1.4357486E-1,7.749509E-2,-1.02110095E-2],"categories":[],"categories_nodes":[],"categories_segments":[],"categories_sizes":[],"default_left":[0,0,0,0,0,0,0,0,0,0,0,0,0,0,0,0,0],"id":81,"left_children":[1,3,5,7,9,-1,-1,11,13,-1,-1,-1,-1,-1,15,-1,-1],"loss_changes":[4.605884E-1,1.0530263E-1,7.674526E-2,7.79078E-2,3.603714E-2,0E0,0E0,2.2115779E-1,3.8734198E-2,0E0,0E0,0E0,0E0,0E0,7.39437E-2,0E0,0E0],"parents":[2147483647,0,0,1,1,2,2,3,3,4,4,7,7,8,8,14,14],"right_children":[2,4,6,8,10,-1,-1,12,14,-1,-1,-1,-1,-1,16,-1,-1],"split_conditions":[8.855626E-1,7.372658E-1,1.7994133E0,-2.2212443E-1,2.356317E-2,-8.1751615E-2,4.4702743E-3,-4.4903655E-2,-4.4903655E-2,4.186702E-2,-1.35834E-2,-2.6951728E-2,9.518835E-2,1.2486414E-1,3.4744585E-1,7.749509E-2,-1.02110095E-2],"split_indices":[6,4,6,5,2,0,0,6,6,0,0,0,0,0,5,0,0],"split_type":[0,0,0,0,0,0,0,0,0,0,0,0,0,0,0,0,0],"sum_hessian":[1.5866589E1,1.3230815E1,2.6357741E0,1.07507105E1,2.480104E0,1.1944954E0,1.4412787E0,3.6703339E0,7.0803766E0,1.0079718E0,1.4721323E0,1.9567121E0,1.7136219E0,4.883469E0,2.1969075E0,1.0586177E0,1.1382898E0],"tree_param":{"num_deleted":"0","num_feature":"10","num_nodes":"17","size_leaf_vector":"1"}},{"base_weights":[-2.1083409E-2,-1.2170801E-1,3.076128E-1,1.1496044E-1,2.8147442E-2],"categories":[],"categories_nodes":[],"categories_segments":[],"categories_sizes":[],"default_left":[0,0,0,0,0],"id":82,"left_children":[1,-1,3,-1,-1],"loss_changes":[1.4376508E0,0E0,6.37241E-2,0E0,0E0],"parents":[2147483647,0,0,2,2],"right_children":[2,-1,4,-1,-1],"split_conditions":[8.855626E-1,-1.2170801E-1,1.7994133E0,1.1496044E-1,2.8147442E-2],"split_indices":[6,0,6,0,0],"split_type":[0,0,0,0,0],"sum_hessian":[9.384876E0,4.216669E0,5.168207E0,3.2327664E0,1.9354407E0],"tree_param":{"num_deleted":"0","num_feature":"10","num_nodes":"5","size_leaf_vector":"1"}},{"base_weights":[-1.3163428E-1,-1.0837954E-1,6.662983E-3,1.6942541E-1,-9.478543E-2,1.5178933E-2,9.430962E-2,-8.332199E-2,8.655159E-2],"categories":[],"categories_nodes":[],"categories_segments":[],"categories_sizes":[],"default_left":[0,0,0,0,0,0,0,0,0],"id":83,"left_children":[1,-1,3,5,-1,7,-1,-1,-1],"loss_changes":[3.0445638E-1,0E0,4.1679054E-1,1.1257985E-1,0E0,3.6784577E-1,0E0,0E0,0E0],"parents":[2147483647,0,0,2,2,3,3,5,5],"right_children":[2,-1,4,6,-1,8,-1,-1,-1],"split_conditions":[-4.4903655E-2,-1.0837954E-1,8.6894715E-1,7.372658E-1,-9.478543E-2,5.3730255E-1,9.430962E-2,-8.332199E-2,8.655159E-2],"split_indices":[6,0,6,4,0,5,0,0,0],"split_type":[0,0,0,0,0,0,0,0,0],"sum_hessian":[8.511172E0,2.5931804E0,5.917992E0,4.249108E0,1.6688844E0,2.5936482E0,1.6554594E0,1.2441585E0,1.3494897E0],"tree_param":{"num_deleted":"0","num_feature":"10","num_nodes":"9","size_leaf_vector":"1"}},{"base_weights":[-1.7463452E-1,-6.3188607E-3,-1.0887981E-1,1.9030045E-1,-8.863384E-2,9.2900224E-2,-1.778249E-2],"categories":[],"categories_nodes":[],"categories_segments":[],"categories_sizes":[],"default_left":[0,0,0,0,0,0,0],"id":84,"left_children":[1,3,-1,5,-1,-1,-1],"loss_changes":[2.4056476E-1,3.44088E-1,0E0,1.2626743E-1,0E0,0E0,0E0],"parents":[2147483647,0,0,1,1,3,3],"right_children":[2,4,-1,6,-1,-1,-1],"split_conditions":[-4.4903655E-2,-2.2212443E-1,-1.0887981E-1,-1.6911972E-1,-8.863384E-2,9.2900224E-2,-1.778249E-2],"split_indices":[6,5,0,4,0,0,0],"split_type":[0,0,0,0,0,0,0],"sum_hessian":[6.6627035E0,4.063757E0,2.5989466E0,2.6222928E0,1.4414641E0,1.6110045E0,1.0112882E0],"tree_param":{"num_deleted":"0","num_feature":"10","num_nodes":"7","size_leaf_vector":"1"}},{"base_weights":[1.710306E-1,2.407405E-1,-1.2944801E-1,2.8001723E-1,4.6004977E-2,-6.8033434E-2,1.5625075E-2,1.1488681E-1,3.4140787E-1,-1.1107214E-2,3.4513667E-2,-2.353533E-2,8.800385E-2,1.1948692E-1,3.8859256E-2],"categories":[],"categories_nodes":[],"categories_segments":[],"categories_sizes":[],"default_left":[0,0,0,0,0,0,0,0,0,0,0,0,0,0,0],"id":85,"left_children":[1,3,5,7,9,-1,-1,11,13,-1,-1,-1,-1,-1,-1],"loss_changes":[3.387326E-1,8.095282E-2,7.215619E-2,6.2278926E-2,2.2922384E-2,0E0,0E0,1.686414E-1,3.026414E-2,0E0,0E0,0E0,0E0,0E0,0E0],"parents":[2147483647,0,0,1,1,2,2,3,3,4,4,7,7,8,8],"right_children":[2,4,6,8,10,-1,-1,12,14,-1,-1,-1,-1,-1,-1],"split_conditions":[8.855626E-1,7.372658E-1,-7.916947E-1,-2.2212443E-1,1.4344854E0,-6.8033434E-2,1.5625075E-2,-4.4903655E-2,-4.4903655E-2,-1.1107214E-2,3.4513667E-2,-2.353533E-2,8.800385E-2,1.1948692E-1,3.8859256E-2],"split_indices":[6,4,5,5,4,0,0,6,6,0,0,0,0,0,0],"split_type":[0,0,0,0,0,0,0,0,0,0,0,0,0,0,0],"sum_hessian":[1.3683683E1,1.1268292E1,2.415391E0,9.012584E0,2.2557087E0,1.4101014E0,1.0052897E0,3.220741E0,5.7918425E0,1.2346449E0,1.0210637E0,1.8149128E0,1.4058282E0,3.8724139E0,1.9194287E0],"tree_param":{"num_deleted":"0","num_feature":"10","num_nodes":"15","size_leaf_vector":"1"}},{"base_weights":[-2.0698255E-2,-1.16607524E-1,2.8048238E-1,1.0344697E-1,1.4513342E-2],"categories":[],"categories_nodes":[],"categories_segments":[],"categories_sizes":[],"default_left":[0,0,0,0,0],"id":86,"left_children":[1,-1,3,-1,-1],"loss_changes":[1.0980493E0,0E0,6.527719E-2,0E0,0E0],"parents":[2147483647,0,0,2,2],"right_children":[2,-1,4,-1,-1],"split_conditions":[8.855626E-1,-1.16607524E-1,-6.967663E-1,1.0344697E-1,1.4513342E-2],"split_indices":[6,0,5,0,0],"split_type":[0,0,0,0,0],"sum_hessian":[7.923628E0,3.435477E0,4.488151E0,3.1338038E0,1.354347E0],"tree_param":{"num_deleted":"0","num_feature":"10","num_nodes":"5","size_leaf_vector":"1"}},{"base_weights":[-1.2050653E-1,-1.0190143E-1,1.1277327E-2,1.6692825E-1,-8.869943E-2,1.5181077E-2,8.9533E-2,-7.751461E-2,8.090054E-2],"categories":[],"categories_nodes":[],"categories_segments":[],"categories_sizes":[],"default_left":[0,0,0,0,0,0,0,0,0],"id":87,"left_children":[1,-1,3,5,-1,7,-1,-1,-1],"loss_changes":[2.4073422E-1,0E0,3.4031793E-1,8.887085E-2,0E0,2.9430243E-1,0E0,0E0,0E0],"parents":[2147483647,0,0,2,2,3,3,5,5],"right_children":[2,-1,4,6,-1,8,-1,-1,-1],"split_conditions":[-4.4903655E-2,-1.0190143E-1,8.6894715E-1,7.372658E-1,-8.869943E-2,5.3730255E-1,8.9533E-2,-7.751461E-2,8.090054E-2],"split_indices":[6,0,6,4,0,5,0,0,0],"split_type":[0,0,0,0,0,0,0,0,0],"sum_hessian":[7.202355E0,2.112179E0,5.0901756E0,3.6801312E0,1.4100444E0,2.2265193E0,1.453612E0,1.0656679E0,1.1608514E0],"tree_param":{"num_deleted":"0","num_feature":"10","num_nodes":"9","size_leaf_vector":"1"}},{"base_weights":[-1.6540465E-1,1.8196714E-3,-1.0413803E-1,7.400444E-2,-8.945916E-2],"categories":[],"categories_nodes":[],"categories_segments":[],"categories_sizes":[],"default_left":[0,0,0,0,0],"id":88,"left_children":[1,3,-1,-1,-1],"loss_changes":[2.051761E-1,4.041505E-1,0E0,0E0,0E0],"parents":[2147483647,0,0,1,1],"right_children":[2,4,-1,-1,-1],"split_conditions":[4.004619E-2,-2.2212443E-1,-1.0413803E-1,7.400444E-2,-8.945916E-2],"split_indices":[4,5,0,0,0],"split_type":[0,0,0,0,0],"sum_hessian":[5.7310133E0,3.5001197E0,2.2308936E0,2.0250936E0,1.4750261E0],"tree_param":{"num_deleted":"0","num_feature":"10","num_nodes":"5","size_leaf_vector":"1"}},{"base_weights":[1.5878886E-1,2.4540025E-1,-4.4399284E-2,9.720982E-2,3.1286967E-1,7.880733E-2,-5.3450797E-2,-2.2442885E-2,6.971872E-2,1.1515296E-1,2.3806145E-2,5.630267E-3,3.0506866E-2],"categories":[],"categories_nodes":[],"categories_segments":[],"categories_sizes":[],"default_left":[0,0,0,0,0,0,0,0,0,0,0,0,0],"id":89,"left_children":[1,3,5,7,9,11,-1,-1,-1,-1,-1,-1,-1],"loss_changes":[2.3969522E-1,6.2257946E-2,9.2037454E-2,1.1855444E-1,6.762642E-2,2.4284795E-3,0E0,0E0,0E0,0E0,0E0,0E0,0E0],"parents":[2147483647,0,0,1,1,2,2,3,3,4,4,5,5],"right_children":[2,4,6,8,10,12,-1,-1,-1,-1,-1,-1,-1],"split_conditions":[6.5294605E-1,-2.2212443E-1,6.4180456E-2,4.004619E-2,-4.4903655E-2,1.5739294E0,-5.3450797E-2,-2.2442885E-2,6.971872E-2,1.1515296E-1,2.3806145E-2,5.630267E-3,3.0506866E-2],"split_indices":[6,5,1,4,6,4,0,0,0,0,0,0,0],"split_type":[0,0,0,0,0,0,0,0,0,0,0,0,0],"sum_hessian":[1.2001155E1,8.268751E0,3.732403E0,3.3504946E0,4.9182568E0,2.1567967E0,1.5756063E0,1.6709212E0,1.6795734E0,3.2781558E0,1.640101E0,1.0974418E0,1.0593549E0],"tree_param":{"num_deleted":"0","num_feature":"10","num_nodes":"13","size_leaf_vector":"1"}},{"base_weights":[-2.2259688E-2,-1.1123558E-1,2.516719E-1,1.04174346E-1,1.3029693E-2],"categories":[],"categories_nodes":[],"categories_segments":[],"categories_sizes":[],"default_left":[0,0,0,0,0],"id":90,"left_children":[1,-1,3,-1,-1],"loss_changes":[8.371318E-1,0E0,8.359495E-2,0E0,0E0],"parents":[2147483647,0,0,2,2],"right_children":[2,-1,4,-1,-1],"split_conditions":[8.855626E-1,-1.1123558E-1,1.7994133E0,1.04174346E-1,1.3029693E-2],"split_indices":[6,0,6,0,0],"split_type":[0,0,0,0,0],"sum_hessian":[6.790915E0,2.832954E0,3.957961E0,2.2553034E0,1.7026578E0],"tree_param":{"num_deleted":"0","num_feature":"10","num_nodes":"5","size_leaf_vector":"1"}},{"base_weights":[-1.07854925E-1,-9.552175E-2,1.7887907E-2,1.6608912E-1,-8.2830004E-2,5.6662746E-3,8.515018E-2],"categories":[],